{"learner":{"attributes":{"scikit_learn":"{\"_estimator_type\": \"classifier\"}"},"feature_names":[],"feature_types":[],"gradient_booster":{"model":{"gbtree_model_param":{"num_parallel_tree":"1","num_trees":"300"},"iteration_indptr":[0,1,2,3,4,5,6,7,8,9,10,11,12,13,14,15,16,17,18,19,20,21,22,23,24,25,26,27,28,29,30,31,32,33,34,35,36,37,38,39,40,41,42,43,44,45,46,47,48,49,50,51,52,53,54,55,56,57,58,59,60,61,62,63,64,65,66,67,68,69,70,71,72,73,74,75,76,77,78,79,80,81,82,83,84,85,86,87,88,89,90,91,92,93,94,95,96,97,98,99,100,101,102,103,104,105,106,107,108,109,110,111,112,113,114,115,116,117,118,119,120,121,122,123,124,125,126,127,128,129,130,131,132,133,134,135,136,137,138,139,140,141,142,143,144,145,146,147,148,149,150,151,152,153,154,155,156,157,158,159,160,161,162,163,164,165,166,167,168,169,170,171,172,173,174,175,176,177,178,179,180,181,182,183,184,185,186,187,188,189,190,191,192,193,194,195,196,197,198,199,200,201,202,203,204,205,206,207,208,209,210,211,212,213,214,215,216,217,218,219,220,221,222,223,224,225,226,227,228,229,230,231,232,233,234,235,236,237,238,239,240,241,242,243,244,245,246,247,248,249,250,251,252,253,254,255,256,257,258,259,260,261,262,263,264,265,266,267,268,269,270,271,272,273,274,275,276,277,278,279,280,281,282,283,284,285,286,287,288,289,290,291,292,293,294,295,296,297,298,299,300],"tree_info":[0,0,0,0,0,0,0,0,0,0,0,0,0,0,0,0,0,0,0,0,0,0,0,0,0,0,0,0,0,0,0,0,0,0,0,0,0,0,0,0,0,0,0,0,0,0,0,0,0,0,0,0,0,0,0,0,0,0,0,0,0,0,0,0,0,0,0,0,0,0,0,0,0,0,0,0,0,0,0,0,0,0,0,0,0,0,0,0,0,0,0,0,0,0,0,0,0,0,0,0,0,0,0,0,0,0,0,0,0,0,0,0,0,0,0,0,0,0,0,0,0,0,0,0,0,0,0,0,0,0,0,0,0,0,0,0,0,0,0,0,0,0,0,0,0,0,0,0,0,0,0,0,0,0,0,0,0,0,0,0,0,0,0,0,0,0,0,0,0,0,0,0,0,0,0,0,0,0,0,0,0,0,0,0,0,0,0,0,0,0,0,0,0,0,0,0,0,0,0,0,0,0,0,0,0,0,0,0,0,0,0,0,0,0,0,0,0,0,0,0,0,0,0,0,0,0,0,0,0,0,0,0,0,0,0,0,0,0,0,0,0,0,0,0,0,0,0,0,0,0,0,0,0,0,0,0,0,0,0,0,0,0,0,0,0,0,0,0,0,0,0,0,0,0,0,0,0,0,0,0,0,0,0,0,0,0,0,0,0,0,0,0,0,0,0,0,0,0,0,0],"trees":[{"base_weights":[6.479699E-3,-1.5941141E0,5.388624E-1,-1.8573192E-1,-1.8007143E0,-8.072873E-1,1.1203626E0,1.2259918E0,-1.7889489E0,-1.9502771E0,-1.1909508E0,4.1119412E-1,-1.6495961E0,1.3043997E0,-1.0016202E0,-1.3323512E0,1.7110214E0,6.7096785E-2,-1.9079225E0,6.663895E-1,-1.9850867E0,1.2397655E0,-1.5027177E0,1.4644876E0,-1.3003081E0,-1.8557056E0,-4.2877942E-1,1.678907E0,6.763046E-1,7.191198E-1,-1.6485007E0,-9.426483E-2,5.1701594E-2,1.82208E0,-6.881147E-2,1.4576996E-2,-1.9763998E0,8.518575E-2,-6.916921E-2,-1.9945966E0,6.461007E-2,1.6977919E0,-9.9787E-1,-1.7129694E0,-1.8706197E-2,1.7269297E0,-2.9284048E-1,6.4828837E-1,-1.7344862E0,-9.00751E-1,-1.9525044E0,6.443034E-1,-1.313045E0,1.7871852E0,-5.756162E-1,-1.0106441E0,1.0718844E0,-8.4783083E-1,1.3436114E0,-1.8404399E0,3.4191546E-1,9.397148E-2,-1.1101799E-2,-1.2867622E-2,-1.0022607E-1,-3.1348404E-2,-1.0102153E-1,9.190621E-2,-1.2867622E-2,-7.373005E-2,9.3668485E-3,-9.708371E-2,-4.946147E-2,5.7132583E-2,-7.182283E-2,8.9105085E-2,-4.176596E-2,-7.318836E-2,6.585907E-2,7.802706E-2,-5.1864184E-2,4.1030258E-2,-9.378353E-2,-8.230751E-2,3.4205817E-2,6.922834E-2,-9.860544E-2,-6.2890194E-2,5.9043612E-2,-8.405855E-2,3.84316E-2,-6.481197E-2,9.0471424E-2,7.781558E-2,-9.369769E-2,-6.87855E-2,4.6545897E-2,8.47701E-3,7.965296E-2,7.411876E-2,-7.6566406E-2,7.956269E-2,-6.4909995E-2,-9.696976E-2,1.1596461E-2,5.940617E-2,-5.7168256E-2],"categories":[],"categories_nodes":[],"categories_segments":[],"categories_sizes":[],"default_left":[0,0,0,0,0,0,0,0,0,0,0,0,0,0,0,0,0,0,0,0,0,0,0,0,0,0,0,0,0,0,0,0,0,0,0,0,0,0,0,0,0,0,0,0,0,0,0,0,0,0,0,0,0,0,0,0,0,0,0,0,0,0,0,0,0,0,0,0,0,0,0,0,0,0,0,0,0,0,0,0,0,0,0,0,0,0,0,0,0,0,0,0,0,0,0,0,0,0,0,0,0,0,0,0,0,0,0],"id":0,"left_children":[1,3,5,7,9,11,13,15,17,19,21,23,25,27,29,31,33,-1,35,37,39,41,43,45,47,49,51,53,55,57,59,-1,-1,61,-1,-1,63,-1,-1,65,-1,67,69,71,73,75,77,79,81,83,85,87,89,91,93,95,97,99,101,103,105,-1,-1,-1,-1,-1,-1,-1,-1,-1,-1,-1,-1,-1,-1,-1,-1,-1,-1,-1,-1,-1,-1,-1,-1,-1,-1,-1,-1,-1,-1,-1,-1,-1,-1,-1,-1,-1,-1,-1,-1,-1,-1,-1,-1,-1,-1],"loss_changes":[4.0893616E3,3.481958E2,2.8198564E3,3.5152853E2,9.2930176E1,1.1162273E3,9.8357275E2,1.0486125E2,2.9632645E1,7.757617E1,1.5971198E2,8.042189E2,1.6096265E2,5.4340186E2,2.2525644E2,1.9924522E1,2.6484756E1,0E0,1.11840515E1,2.7318043E1,2.8334717E1,2.6524284E1,5.7711945E1,1.2778558E2,1.4502036E2,4.9055298E1,9.019116E1,3.5488965E2,5.792457E2,5.5640057E1,5.6638306E1,0E0,0E0,8.3810425E0,0E0,0E0,2.7922974E0,0E0,0E0,2.7861328E1,0E0,6.0923195E0,2.9580145E0,2.4908875E1,4.1120197E1,3.5453125E1,7.114297E1,5.039279E1,5.1812714E1,6.3087162E1,3.5326782E1,4.5583992E1,4.1102074E1,9.72251E1,1.8888005E2,1.1829411E2,3.3000885E2,2.8524899E1,2.8372826E1,2.7902405E1,1.8624342E1,0E0,0E0,0E0,0E0,0E0,0E0,0E0,0E0,0E0,0E0,0E0,0E0,0E0,0E0,0E0,0E0,0E0,0E0,0E0,0E0,0E0,0E0,0E0,0E0,0E0,0E0,0E0,0E0,0E0,0E0,0E0,0E0,0E0,0E0,0E0,0E0,0E0,0E0,0E0,0E0,0E0,0E0,0E0,0E0,0E0,0E0],"parents":[2147483647,0,0,1,1,2,2,3,3,4,4,5,5,6,6,7,7,8,8,9,9,10,10,11,11,12,12,13,13,14,14,15,15,16,16,18,18,19,19,20,20,21,21,22,22,23,23,24,24,25,25,26,26,27,27,28,28,29,29,30,30,33,33,36,36,39,39,41,41,42,42,43,43,44,44,45,45,46,46,47,47,48,48,49,49,50,50,51,51,52,52,53,53,54,54,55,55,56,56,57,57,58,58,59,59,60,60],"right_children":[2,4,6,8,10,12,14,16,18,20,22,24,26,28,30,32,34,-1,36,38,40,42,44,46,48,50,52,54,56,58,60,-1,-1,62,-1,-1,64,-1,-1,66,-1,68,70,72,74,76,78,80,82,84,86,88,90,92,94,96,98,100,102,104,106,-1,-1,-1,-1,-1,-1,-1,-1,-1,-1,-1,-1,-1,-1,-1,-1,-1,-1,-1,-1,-1,-1,-1,-1,-1,-1,-1,-1,-1,-1,-1,-1,-1,-1,-1,-1,-1,-1,-1,-1,-1,-1,-1,-1,-1,-1],"split_conditions":[-6.927387E-1,-1.3509753E0,-4.7468254E-1,-1.3108478E-1,4.386367E-1,1.4195992E-1,1.0359827E0,-3.2560003E-1,-8.9063644E-1,-1.3794228E0,-5.6246E-1,5.539445E-1,4.414973E-1,-3.4355257E-2,-2.9600304E-2,7.688771E-1,1.2135241E0,6.7096785E-2,-2.079652E0,-1.5758368E0,1.3470823E0,8.5336804E-1,2.4243666E-1,1.3522847E-1,-3.3516001E-3,-5.3312933E-1,2.7370252E-2,1.0615021E0,-5.699435E-1,2.6610664E-1,5.380508E-1,-9.426483E-2,5.1701594E-2,1.2250673E0,-6.881147E-2,1.4576996E-2,-1.2460747E0,8.518575E-2,-6.916921E-2,-1.1293949E0,6.461007E-2,1.236627E0,8.552457E-1,-2.5073206E-1,6.71456E-1,1.0130984E0,2.0606609E-1,6.973728E-1,-4.9590757E-1,-1.3772623E-1,-1.9679588E0,-1.1294756E0,2.881925E-1,-1.9139569E0,3.2804555E-1,6.9057614E-1,1.6920444E-1,-8.3884686E-1,1.6615968E0,6.409652E-1,8.4892935E-1,9.397148E-2,-1.1101799E-2,-1.2867622E-2,-1.0022607E-1,-3.1348404E-2,-1.0102153E-1,9.190621E-2,-1.2867622E-2,-7.373005E-2,9.3668485E-3,-9.708371E-2,-4.946147E-2,5.7132583E-2,-7.182283E-2,8.9105085E-2,-4.176596E-2,-7.318836E-2,6.585907E-2,7.802706E-2,-5.1864184E-2,4.1030258E-2,-9.378353E-2,-8.230751E-2,3.4205817E-2,6.922834E-2,-9.860544E-2,-6.2890194E-2,5.9043612E-2,-8.405855E-2,3.84316E-2,-6.481197E-2,9.0471424E-2,7.781558E-2,-9.369769E-2,-6.87855E-2,4.6545897E-2,8.47701E-3,7.965296E-2,7.411876E-2,-7.6566406E-2,7.956269E-2,-6.4909995E-2,-9.696976E-2,1.1596461E-2,5.940617E-2,-5.7168256E-2],"split_indices":[37,619,233,711,0,18,166,621,453,386,16,659,459,510,552,505,325,0,489,767,38,18,400,539,704,688,717,494,30,403,3,0,0,160,0,0,65,0,0,435,0,322,22,517,46,668,37,482,598,675,492,682,30,341,688,505,228,378,386,526,612,0,0,0,0,0,0,0,0,0,0,0,0,0,0,0,0,0,0,0,0,0,0,0,0,0,0,0,0,0,0,0,0,0,0,0,0,0,0,0,0,0,0,0,0,0,0],"split_type":[0,0,0,0,0,0,0,0,0,0,0,0,0,0,0,0,0,0,0,0,0,0,0,0,0,0,0,0,0,0,0,0,0,0,0,0,0,0,0,0,0,0,0,0,0,0,0,0,0,0,0,0,0,0,0,0,0,0,0,0,0,0,0,0,0,0,0,0,0,0,0,0,0,0,0,0,0,0,0,0,0,0,0,0,0,0,0,0,0,0,0,0,0,0,0,0,0,0,0,0,0,0,0,0,0,0,0],"sum_hessian":[4.796989E3,1.1968121E3,3.6001765E3,1.533478E2,1.0434642E3,1.0859221E3,2.5142544E3,8.166894E1,7.1678856E1,8.3617004E2,2.0729425E2,4.4405923E2,6.418629E2,2.3139531E3,2.003012E2,1.2737357E1,6.893158E1,2.2477689E0,6.943108E1,1.0739341E1,8.254307E2,2.3226946E1,1.840673E2,2.7497708E2,1.6908217E2,5.487054E2,9.315753E1,1.4485623E3,8.6539105E2,5.469571E1,1.4560548E2,1.0489589E1,2.2477689E0,6.693356E1,1.9980168E0,1.9980168E0,6.743307E1,7.242811E0,3.4965296E0,8.234327E2,1.9980168E0,1.9480663E1,3.7462816E0,1.610901E2,2.2977194E1,2.3926251E2,3.571455E1,3.071951E1,1.3836267E2,5.1448933E1,4.9725644E2,4.2208107E1,5.094943E1,1.3823779E3,6.618431E1,1.6408713E2,7.013039E2,1.5484631E1,3.921108E1,1.3286812E2,1.2737357E1,6.51853E1,1.7482648E0,1.2487605E0,6.618431E1,1.5734383E1,8.076983E2,1.8231903E1,1.2487605E0,2.497521E0,1.2487605E0,1.2112977E2,3.9960335E1,1.2737357E1,1.0239837E1,2.3451723E2,4.74529E0,2.0729425E1,1.49851265E1,1.9980167E1,1.0739341E1,6.993059E0,1.3136961E2,3.4965294E1,1.6483639E1,2.497521E0,4.947589E2,8.9910755E0,3.321703E1,4.3456867E1,7.4925632E0,9.49058E0,1.3728873E3,2.497521E1,4.12091E1,1.3836267E2,2.5724466E1,2.5724466E2,4.4405923E2,3.2467773E0,1.2237853E1,3.6214054E1,2.9970253E0,1.2687407E2,5.9940505E0,8.241819E0,4.4955378E0],"tree_param":{"num_deleted":"0","num_feature":"783","num_nodes":"107","size_leaf_vector":"1"}},{"base_weights":[1.8442133E-3,-1.1188365E0,6.8034995E-1,-1.434088E0,1.0913708E0,-5.628883E-1,1.206245E0,-1.5483811E0,5.1233965E-1,1.6638905E0,-8.7329257E-1,9.1287446E-1,-1.3858179E0,-4.0178177E-1,1.4541713E0,-1.9264221E-1,-1.6712328E0,1.4856468E0,-1.5103647E0,1.7827762E0,-1.2394816E0,8.294871E-2,-1.5568315E0,-5.593661E-1,1.2992692E0,1.0434996E0,-1.7045177E0,-1.2632022E0,7.755867E-1,1.5517694E0,8.491105E-2,1.1546401E0,-1.2656093E0,-1.726244E0,9.969685E-3,1.7318598E0,-7.899913E-2,6.614518E-1,-9.272968E-2,1.810911E0,-4.0861305E-2,-8.52804E-2,3.0445194E-2,5.890238E-2,-1.8017259E0,1.2524639E0,-1.1507449E0,-3.863479E-1,1.5001172E0,1.5580974E0,-8.385537E-1,-1.7669215E0,2.5237468E-1,6.8864876E-1,-1.6600788E0,-1.3869543E0,1.3051629E0,1.6426281E0,7.681708E-3,-1.3320233E0,1.3569311E0,-7.947332E-2,7.575273E-2,4.235523E-3,-8.791324E-2,5.0424583E-2,-8.746521E-2,5.6149866E-2,-6.286781E-2,8.9962475E-2,-3.4351412E-2,6.673489E-2,-3.385027E-2,9.1388516E-2,-1.20223565E-2,-9.5114365E-2,1.9831743E-2,-6.2743954E-2,8.120146E-2,4.3222636E-2,-7.319201E-2,4.8881434E-2,-6.529629E-2,-6.3462734E-2,8.103669E-2,8.4097765E-2,-6.549289E-2,-7.484915E-2,4.4922587E-2,-9.0531215E-2,2.8721824E-2,6.931978E-2,-5.6103706E-2,-5.2383132E-2,6.1541554E-2,3.3082776E-2,-8.7926604E-2,-8.8138424E-2,5.5850666E-2,8.010949E-2,-4.089597E-2,2.7023299E-2,8.5152574E-2,-8.414841E-2,5.60682E-2,8.161644E-3,-9.0952836E-2,8.499254E-2,-1.4790642E-2],"categories":[],"categories_nodes":[],"categories_segments":[],"categories_sizes":[],"default_left":[0,0,0,0,0,0,0,0,0,0,0,0,0,0,0,0,0,0,0,0,0,0,0,0,0,0,0,0,0,0,0,0,0,0,0,0,0,0,0,0,0,0,0,0,0,0,0,0,0,0,0,0,0,0,0,0,0,0,0,0,0,0,0,0,0,0,0,0,0,0,0,0,0,0,0,0,0,0,0,0,0,0,0,0,0,0,0,0,0,0,0,0,0,0,0,0,0,0,0,0,0,0,0,0,0,0,0,0,0],"id":1,"left_children":[1,3,5,7,9,11,13,15,17,19,21,23,25,27,29,31,33,35,37,39,41,-1,43,45,47,49,51,53,55,57,59,61,63,65,67,69,-1,71,-1,73,-1,-1,-1,-1,75,77,79,81,83,85,87,89,91,93,95,97,99,101,103,105,107,-1,-1,-1,-1,-1,-1,-1,-1,-1,-1,-1,-1,-1,-1,-1,-1,-1,-1,-1,-1,-1,-1,-1,-1,-1,-1,-1,-1,-1,-1,-1,-1,-1,-1,-1,-1,-1,-1,-1,-1,-1,-1,-1,-1,-1,-1,-1,-1],"loss_changes":[3.6413152E3,1.259883E3,1.9508903E3,3.5249146E2,2.5566052E2,1.0789203E3,8.3638794E2,2.4842627E2,1.7634468E2,6.2734253E1,9.198948E1,1.8178403E2,4.43151E2,2.8580908E2,2.426372E2,1.8247838E2,1.2665454E2,4.8181656E1,2.3075516E1,1.3832214E1,7.4896173E0,0E0,2.9709724E1,7.308699E1,8.603406E1,6.5939865E1,6.2035767E1,1.2706967E2,1.3841147E2,2.3788354E2,2.2156668E2,5.78293E1,4.6837997E1,8.537988E1,6.4011696E1,1.0398758E1,0E0,5.1708107E0,0E0,6.2276E0,0E0,0E0,0E0,0E0,9.199402E0,1.7813635E1,3.3401566E1,3.5981316E1,7.746225E1,2.094313E1,1.8476654E1,5.106494E1,2.7213057E1,2.7813808E1,3.2110138E1,2.4505219E1,6.2057327E1,1.05731445E2,1.8120892E2,4.2668198E1,3.7197533E1,0E0,0E0,0E0,0E0,0E0,0E0,0E0,0E0,0E0,0E0,0E0,0E0,0E0,0E0,0E0,0E0,0E0,0E0,0E0,0E0,0E0,0E0,0E0,0E0,0E0,0E0,0E0,0E0,0E0,0E0,0E0,0E0,0E0,0E0,0E0,0E0,0E0,0E0,0E0,0E0,0E0,0E0,0E0,0E0,0E0,0E0,0E0,0E0],"parents":[2147483647,0,0,1,1,2,2,3,3,4,4,5,5,6,6,7,7,8,8,9,9,10,10,11,11,12,12,13,13,14,14,15,15,16,16,17,17,18,18,19,19,20,20,22,22,23,23,24,24,25,25,26,26,27,27,28,28,29,29,30,30,31,31,32,32,33,33,34,34,35,35,37,37,39,39,44,44,45,45,46,46,47,47,48,48,49,49,50,50,51,51,52,52,53,53,54,54,55,55,56,56,57,57,58,58,59,59,60,60],"right_children":[2,4,6,8,10,12,14,16,18,20,22,24,26,28,30,32,34,36,38,40,42,-1,44,46,48,50,52,54,56,58,60,62,64,66,68,70,-1,72,-1,74,-1,-1,-1,-1,76,78,80,82,84,86,88,90,92,94,96,98,100,102,104,106,108,-1,-1,-1,-1,-1,-1,-1,-1,-1,-1,-1,-1,-1,-1,-1,-1,-1,-1,-1,-1,-1,-1,-1,-1,-1,-1,-1,-1,-1,-1,-1,-1,-1,-1,-1,-1,-1,-1,-1,-1,-1,-1,-1,-1,-1,-1,-1,-1],"split_conditions":[-2.8186658E-1,7.6749015E-1,-3.2638866E-1,1.6683334E0,1.2462124E-1,-2.613077E-1,-6.718398E-1,-8.470663E-1,2.9784903E-1,9.824165E-1,-8.290701E-1,-3.3704254E-1,-1.8167585E-1,-2.628019E-1,7.938865E-1,-5.015143E-1,1.0521642E0,1.0107678E0,3.159101E-1,2.0358293E0,2.2955563E-2,8.294871E-2,-1.0852461E0,-4.273217E-1,-7.5993294E-1,4.54608E-1,1.1053572E0,1.4553967E-1,-3.6880624E-1,1.1681501E0,-1.15543656E-1,-1.5306251E0,-4.882165E-1,-2.0224063E0,5.1840043E-1,5.674821E-1,-7.899913E-2,-7.5479245E-1,-9.272968E-2,1.1946584E0,-4.0861305E-2,-8.52804E-2,3.0445194E-2,5.890238E-2,1.2563165E0,-1.0904458E0,-1.5507694E0,-2.9386058E-1,-1.2615331E0,8.0694056E-1,5.488568E-1,1.029311E0,3.2361305E-1,-1.787277E0,-1.9405437E0,9.5876575E-1,4.5226386E-1,-9.182422E-1,-9.1729E-1,1.9138861E-2,2.4718842E-1,-7.947332E-2,7.575273E-2,4.235523E-3,-8.791324E-2,5.0424583E-2,-8.746521E-2,5.6149866E-2,-6.286781E-2,8.9962475E-2,-3.4351412E-2,6.673489E-2,-3.385027E-2,9.1388516E-2,-1.20223565E-2,-9.5114365E-2,1.9831743E-2,-6.2743954E-2,8.120146E-2,4.3222636E-2,-7.319201E-2,4.8881434E-2,-6.529629E-2,-6.3462734E-2,8.103669E-2,8.4097765E-2,-6.549289E-2,-7.484915E-2,4.4922587E-2,-9.0531215E-2,2.8721824E-2,6.931978E-2,-5.6103706E-2,-5.2383132E-2,6.1541554E-2,3.3082776E-2,-8.7926604E-2,-8.8138424E-2,5.5850666E-2,8.010949E-2,-4.089597E-2,2.7023299E-2,8.5152574E-2,-8.414841E-2,5.60682E-2,8.161644E-3,-9.0952836E-2,8.499254E-2,-1.4790642E-2],"split_indices":[37,467,750,385,566,413,347,435,720,149,711,233,711,34,690,711,108,15,116,132,465,0,523,151,174,554,79,56,403,494,467,507,59,574,439,195,0,424,0,450,0,0,0,0,195,88,435,689,664,59,459,95,776,738,82,400,169,685,641,187,56,0,0,0,0,0,0,0,0,0,0,0,0,0,0,0,0,0,0,0,0,0,0,0,0,0,0,0,0,0,0,0,0,0,0,0,0,0,0,0,0,0,0,0,0,0,0,0,0],"split_type":[0,0,0,0,0,0,0,0,0,0,0,0,0,0,0,0,0,0,0,0,0,0,0,0,0,0,0,0,0,0,0,0,0,0,0,0,0,0,0,0,0,0,0,0,0,0,0,0,0,0,0,0,0,0,0,0,0,0,0,0,0,0,0,0,0,0,0,0,0,0,0,0,0,0,0,0,0,0,0,0,0,0,0,0,0,0,0,0,0,0,0,0,0,0,0,0,0,0,0,0,0,0,0,0,0,0,0,0,0],"sum_hessian":[4.7867563E3,1.8049276E3,2.9818289E3,1.579927E3,2.2500066E2,8.863616E2,2.0954673E3,1.4924932E3,8.743384E1,1.7434741E2,5.0653233E1,3.1727744E2,5.6908417E2,2.7983887E2,1.8156283E3,1.2422023E2,1.368273E3,5.9208668E1,2.8225166E1,1.6785994E2,6.4874716E0,1.0463326E1,4.0189907E1,6.586627E1,2.5141116E2,6.573547E1,5.0334866E2,1.6156044E2,1.1827843E2,1.6947003E3,1.2092799E2,5.50367E1,6.9183525E1,1.3248938E3,4.3379044E1,5.5209637E1,3.9990332E0,3.7355037E0,2.4489662E1,1.663632E2,1.4967375E0,5.2426286E0,1.2448431E0,2.9898672E0,3.720004E1,1.593321E1,4.993306E1,2.6668886E1,2.2474228E2,5.175623E1,1.3979243E1,4.878874E2,1.5461268E1,2.7175476E1,1.3438496E2,2.2948505E1,9.5329926E1,1.6004607E3,9.423967E1,5.7183136E1,6.374486E1,5.993508E0,4.9043194E1,1.8715168E1,5.046836E1,1.0721216E1,1.3141726E3,2.3156103E1,2.0222939E1,5.3962418E1,1.2472161E0,2.4872315E0,1.2482721E0,1.6511519E2,1.2480224E0,3.570159E1,1.4984479E0,1.749591E0,1.41836195E1,6.4778976E0,4.3455162E1,1.0714029E1,1.5954857E1,8.982386E0,2.157599E2,5.000999E1,1.7462368E0,1.0236991E1,3.742252E0,4.791701E2,8.717298E0,8.4668255E0,6.994443E0,6.2447314E0,2.0930744E1,5.234068E0,1.291509E2,2.0211084E1,2.7374213E0,8.384505E1,1.1484879E1,8.369799E1,1.5167627E3,3.7222324E1,5.7017345E1,1.4212807E1,4.297033E1,5.2767826E1,1.0977036E1],"tree_param":{"num_deleted":"0","num_feature":"783","num_nodes":"109","size_leaf_vector":"1"}},{"base_weights":[8.0443197E-4,-1.4310077E0,4.8717386E-1,-1.6318887E0,3.7378034E-1,-6.8813676E-1,1.0296161E0,-1.6839503E0,3.012949E-1,-1.5194054E0,1.5519418E0,3.979518E-1,-1.4737946E0,1.1753755E0,-1.2439111E0,5.0685775E-1,-1.715525E0,1.2979617E0,-1.3275434E0,6.0056217E-2,-1.7604654E0,-7.143804E-2,8.9050226E-2,1.367959E0,-1.160435E0,-5.4294926E-1,-1.6832027E0,1.5477403E0,6.0495853E-1,4.1411328E-1,-1.6564401E0,-6.994208E-2,1.377847E0,-2.878841E-1,-1.7470558E0,-6.264532E-2,8.369642E-2,-8.517372E-2,2.6044408E-2,-9.214847E-2,-4.0355633E-4,-6.5942204E-1,1.5644449E0,7.207623E-1,-1.5675472E0,-1.2654282E0,9.542414E-1,7.813151E-2,-1.7270404E0,1.628396E0,-1.287978E0,1.1684077E0,-3.2508454E-1,-1.5222552E0,1.2354524E0,-1.7529267E0,7.769579E-1,-3.349179E-2,8.470257E-2,-7.063234E-2,6.187904E-2,4.1035797E-2,-8.801919E-2,4.3817665E-2,-7.417327E-2,-8.319618E-2,8.3816364E-2,7.791109E-2,-4.7348525E-2,-9.111918E-2,-2.2706745E-2,3.1473357E-2,-7.815347E-2,6.831833E-2,-4.7977384E-2,-8.847631E-2,5.4855127E-2,-2.2949915E-2,8.324986E-2,7.7629015E-2,-9.0898395E-2,6.7999564E-2,-3.0733673E-2,3.5414934E-2,-5.0415885E-2,-8.479265E-2,-1.0381031E-2,-3.88033E-2,7.975621E-2,-9.1154866E-2,4.1128855E-2,-3.2900583E-2,6.9570884E-2],"categories":[],"categories_nodes":[],"categories_segments":[],"categories_sizes":[],"default_left":[0,0,0,0,0,0,0,0,0,0,0,0,0,0,0,0,0,0,0,0,0,0,0,0,0,0,0,0,0,0,0,0,0,0,0,0,0,0,0,0,0,0,0,0,0,0,0,0,0,0,0,0,0,0,0,0,0,0,0,0,0,0,0,0,0,0,0,0,0,0,0,0,0,0,0,0,0,0,0,0,0,0,0,0,0,0,0,0,0,0,0,0,0],"id":2,"left_children":[1,3,5,7,9,11,13,15,17,19,21,23,25,27,29,31,33,35,37,-1,39,-1,-1,41,43,45,47,49,51,53,55,-1,57,59,61,-1,-1,-1,-1,-1,-1,63,65,67,69,71,73,-1,75,77,79,81,83,85,87,89,91,-1,-1,-1,-1,-1,-1,-1,-1,-1,-1,-1,-1,-1,-1,-1,-1,-1,-1,-1,-1,-1,-1,-1,-1,-1,-1,-1,-1,-1,-1,-1,-1,-1,-1,-1,-1],"loss_changes":[3.3401914E3,4.4153076E2,2.2832644E3,1.1066821E2,2.7586267E2,9.658302E2,8.1338477E2,7.460913E1,4.9698135E1,3.3293503E1,5.4488846E1,7.205306E2,1.2707385E2,4.8822192E2,1.0198367E2,2.8347466E1,4.681128E1,2.0165068E1,9.026203E0,0E0,6.357971E0,0E0,0E0,1.1798718E2,1.4128491E2,1.3323846E2,7.889978E1,3.2064014E2,4.778942E2,5.0081085E1,2.9253357E1,0E0,8.534277E0,4.2772377E1,3.6632324E1,0E0,0E0,0E0,0E0,0E0,0E0,3.501909E1,9.957385E1,4.7904964E1,4.1948944E1,4.7660828E1,3.3096012E1,0E0,6.53988E1,1.04261475E2,6.1650406E1,1.9475684E2,2.4398943E2,1.8101311E0,1.7033371E1,2.220514E1,5.521285E0,0E0,0E0,0E0,0E0,0E0,0E0,0E0,0E0,0E0,0E0,0E0,0E0,0E0,0E0,0E0,0E0,0E0,0E0,0E0,0E0,0E0,0E0,0E0,0E0,0E0,0E0,0E0,0E0,0E0,0E0,0E0,0E0,0E0,0E0,0E0,0E0],"parents":[2147483647,0,0,1,1,2,2,3,3,4,4,5,5,6,6,7,7,8,8,9,9,10,10,11,11,12,12,13,13,14,14,15,15,16,16,17,17,18,18,20,20,23,23,24,24,25,25,26,26,27,27,28,28,29,29,30,30,32,32,33,33,34,34,41,41,42,42,43,43,44,44,45,45,46,46,48,48,49,49,50,50,51,51,52,52,53,53,54,54,55,55,56,56],"right_children":[2,4,6,8,10,12,14,16,18,20,22,24,26,28,30,32,34,36,38,-1,40,-1,-1,42,44,46,48,50,52,54,56,-1,58,60,62,-1,-1,-1,-1,-1,-1,64,66,68,70,72,74,-1,76,78,80,82,84,86,88,90,92,-1,-1,-1,-1,-1,-1,-1,-1,-1,-1,-1,-1,-1,-1,-1,-1,-1,-1,-1,-1,-1,-1,-1,-1,-1,-1,-1,-1,-1,-1,-1,-1,-1,-1,-1,-1],"split_conditions":[-6.7667854E-1,1.5212382E0,-4.3882445E-1,9.0456086E-1,-2.2206077E-1,1.4195992E-1,1.2233446E0,-1.8263414E0,6.274338E-1,-1.5758368E0,-1.0049144E0,5.539445E-1,-3.2384396E-1,-6.0726073E-2,5.8871567E-2,-4.135338E-2,-1.1640457E0,-1.3158948E0,2.3204629E-1,6.0056217E-2,2.4511142E-1,-7.143804E-2,8.9050226E-2,-5.6047404E-1,6.5567996E-3,3.0690074E-1,-1.8684963E0,1.6218998E0,1.5773752E-1,-1.5419338E0,8.1543946E-1,-6.994208E-2,-1.270366E0,-3.4212995E-1,-1.5584594E0,-6.264532E-2,8.369642E-2,-8.517372E-2,2.6044408E-2,-9.214847E-2,-4.0355633E-4,2.7064377E-1,-9.392981E-1,6.973728E-1,4.0705353E-1,-1.0565057E0,6.2668717E-1,7.813151E-2,1.2772208E0,-1.4634954E0,-6.0762054E-1,5.993829E-1,-2.82838E-1,8.0284104E-2,-7.1774256E-1,1.2315853E0,-2.714817E-1,-3.349179E-2,8.470257E-2,-7.063234E-2,6.187904E-2,4.1035797E-2,-8.801919E-2,4.3817665E-2,-7.417327E-2,-8.319618E-2,8.3816364E-2,7.791109E-2,-4.7348525E-2,-9.111918E-2,-2.2706745E-2,3.1473357E-2,-7.815347E-2,6.831833E-2,-4.7977384E-2,-8.847631E-2,5.4855127E-2,-2.2949915E-2,8.324986E-2,7.7629015E-2,-9.0898395E-2,6.7999564E-2,-3.0733673E-2,3.5414934E-2,-5.0415885E-2,-8.479265E-2,-1.0381031E-2,-3.88033E-2,7.975621E-2,-9.1154866E-2,4.1128855E-2,-3.2900583E-2,6.9570884E-2],"split_indices":[37,385,233,467,300,18,166,574,439,767,72,659,688,510,688,561,435,532,750,0,284,0,0,738,704,550,492,57,56,738,692,0,400,467,386,0,0,0,0,0,0,453,701,482,280,782,760,0,652,341,625,625,672,400,400,526,93,0,0,0,0,0,0,0,0,0,0,0,0,0,0,0,0,0,0,0,0,0,0,0,0,0,0,0,0,0,0,0,0,0,0,0,0],"split_type":[0,0,0,0,0,0,0,0,0,0,0,0,0,0,0,0,0,0,0,0,0,0,0,0,0,0,0,0,0,0,0,0,0,0,0,0,0,0,0,0,0,0,0,0,0,0,0,0,0,0,0,0,0,0,0,0,0,0,0,0,0,0,0,0,0,0,0,0,0,0,0,0,0,0,0,0,0,0,0,0,0,0,0,0,0,0,0,0,0,0,0,0,0],"sum_hessian":[4.7944395E3,1.2151738E3,3.5792656E3,1.0935524E3,1.2162152E2,1.1301971E3,2.4490684E3,1.0650002E3,2.8552034E1,4.6542618E1,7.5078896E1,4.7460272E2,6.5559436E2,2.3019688E3,1.4709973E2,1.4917209E1,1.050083E3,1.7839434E1,1.0712602E1,3.464188E0,4.307843E1,4.98419E0,7.009471E1,2.925988E2,1.8200394E2,1.2106001E2,5.3453436E2,1.3917373E3,9.102313E2,2.9306814E1,1.17792915E2,4.489115E0,1.0428094E1,2.2909807E1,1.0271732E3,1.9919437E0,1.5847489E1,8.967274E0,1.7453274E0,4.1092102E1,1.9863299E0,2.564389E1,2.669549E2,3.2243187E1,1.4976076E2,8.176067E1,3.929934E1,6.6614504E0,5.278729E2,1.3536611E3,3.8076157E1,5.666692E2,3.4356216E2,8.4744E0,2.0832415E1,1.1356942E2,4.2234936E0,1.2453129E0,9.18278E0,1.3229402E1,9.680407E0,4.991226E0,1.022182E3,8.932621E0,1.671127E1,8.477053E0,2.5847784E2,2.150834E1,1.0734845E1,1.21349655E2,2.8411098E1,1.0947831E1,7.081284E1,3.257131E1,6.72803E0,5.204173E2,7.455607E0,2.3127674E1,1.3305336E3,5.683759E0,3.23924E1,5.1190475E2,5.4764423E1,1.3672711E2,2.0683507E2,7.2297316E0,1.2446685E0,2.9843395E0,1.7848076E1,1.1084164E2,2.7277825E0,1.2450368E0,2.978457E0],"tree_param":{"num_deleted":"0","num_feature":"783","num_nodes":"93","size_leaf_vector":"1"}},{"base_weights":[2.4942074E-3,-1.3666039E0,4.6750042E-1,-1.5564021E0,4.199497E-1,-7.0124173E-1,9.6967816E-1,-1.6090109E0,4.0319303E-1,1.4889479E0,-1.492322E0,-1.4876994E0,2.5029916E-1,1.2902274E0,-2.0090964E-2,7.2820556E-1,-1.6362641E0,-7.404773E-2,1.0594369E0,-6.2166806E-2,1.649503E0,-1.6933061E0,8.7259203E-1,5.1868206E-1,-1.6484854E0,9.728029E-1,-1.304118E0,1.4188153E0,-6.503719E-1,1.2704788E0,-7.8631264E-1,-6.798371E-2,1.3613087E0,-1.9830665E-1,-1.6682413E0,-8.331661E-1,1.5830568E0,1.7000015E0,-3.289592E-2,-8.8044696E-2,1.0326507E-2,6.5298625E-3,5.796088E-2,1.396942E0,-1.2363561E0,4.782736E-2,-1.7110672E0,-6.4774096E-1,1.3857756E0,2.9753257E-2,-1.6601727E0,-1.1172515E0,1.4630105E0,-1.5908575E0,1.3541769E0,-2.885934E-1,1.5848112E0,-7.7151987E-3,-1.4092009E0,-1.2641706E-2,8.036476E-2,-6.0556542E-2,5.5931013E-2,-8.814863E-2,-6.20007E-2,3.0987823E-2,-7.030829E-2,8.395877E-2,8.0442205E-3,2.6971808E-2,8.564016E-2,8.1912495E-2,-6.574123E-2,4.5402806E-2,-8.131363E-2,6.663804E-2,-4.7274385E-2,5.6042075E-2,-8.653798E-2,1.8671317E-2,-6.198842E-2,-8.286204E-2,7.45192E-2,-7.23524E-2,4.3559447E-2,-8.627071E-2,5.210052E-2,5.5560242E-2,-8.617442E-2,-3.90605E-2,7.532193E-2,-8.695155E-2,4.4095706E-2,8.205285E-2,-5.708269E-2,6.384214E-2,-4.3403625E-2,8.1958696E-2,-5.0639387E-2,-5.240948E-2,2.9892309E-2,-7.9625905E-2,3.0429522E-2],"categories":[],"categories_nodes":[],"categories_segments":[],"categories_sizes":[],"default_left":[0,0,0,0,0,0,0,0,0,0,0,0,0,0,0,0,0,0,0,0,0,0,0,0,0,0,0,0,0,0,0,0,0,0,0,0,0,0,0,0,0,0,0,0,0,0,0,0,0,0,0,0,0,0,0,0,0,0,0,0,0,0,0,0,0,0,0,0,0,0,0,0,0,0,0,0,0,0,0,0,0,0,0,0,0,0,0,0,0,0,0,0,0,0,0,0,0,0,0,0,0,0,0],"id":3,"left_children":[1,3,5,7,9,11,13,15,17,19,21,23,25,27,29,31,33,-1,35,-1,37,39,41,43,45,47,49,51,53,55,57,-1,59,61,63,65,67,69,-1,-1,-1,-1,-1,71,73,75,77,79,81,83,85,87,89,91,93,95,97,99,101,-1,-1,-1,-1,-1,-1,-1,-1,-1,-1,-1,-1,-1,-1,-1,-1,-1,-1,-1,-1,-1,-1,-1,-1,-1,-1,-1,-1,-1,-1,-1,-1,-1,-1,-1,-1,-1,-1,-1,-1,-1,-1,-1,-1],"loss_changes":[3.0065774E3,4.066499E2,2.0697026E3,1.122522E2,2.3888623E2,7.936616E2,7.824724E2,6.8356445E1,3.755362E1,3.4846985E1,2.1446404E1,1.8812866E2,5.4094916E2,4.657832E2,5.9856805E2,1.8831049E1,4.761035E1,0E0,2.3287468E1,0E0,9.396225E0,5.3793945E0,6.88823E-1,6.928611E1,5.71615E1,2.2082959E2,7.267117E1,1.9749146E2,2.2169772E2,1.1096915E2,1.8418227E2,0E0,4.5185432E0,3.3120975E1,3.9183105E1,5.4163904E0,2.1505775E0,1.1305237E-1,0E0,0E0,0E0,0E0,0E0,2.1576656E1,1.4143267E1,2.6919462E1,3.0859863E1,4.1222626E1,8.593762E1,4.2515343E1,2.3078552E1,4.3116398E1,1.6861035E2,3.0744537E1,2.8887695E1,3.61987E1,2.818274E1,1.0761605E2,7.901373E1,0E0,0E0,0E0,0E0,0E0,0E0,0E0,0E0,0E0,0E0,0E0,0E0,0E0,0E0,0E0,0E0,0E0,0E0,0E0,0E0,0E0,0E0,0E0,0E0,0E0,0E0,0E0,0E0,0E0,0E0,0E0,0E0,0E0,0E0,0E0,0E0,0E0,0E0,0E0,0E0,0E0,0E0,0E0,0E0],"parents":[2147483647,0,0,1,1,2,2,3,3,4,4,5,5,6,6,7,7,8,8,9,9,10,10,11,11,12,12,13,13,14,14,15,15,16,16,18,18,20,20,21,21,22,22,23,23,24,24,25,25,26,26,27,27,28,28,29,29,30,30,32,32,33,33,34,34,35,35,36,36,37,37,43,43,44,44,45,45,46,46,47,47,48,48,49,49,50,50,51,51,52,52,53,53,54,54,55,55,56,56,57,57,58,58],"right_children":[2,4,6,8,10,12,14,16,18,20,22,24,26,28,30,32,34,-1,36,-1,38,40,42,44,46,48,50,52,54,56,58,-1,60,62,64,66,68,70,-1,-1,-1,-1,-1,72,74,76,78,80,82,84,86,88,90,92,94,96,98,100,102,-1,-1,-1,-1,-1,-1,-1,-1,-1,-1,-1,-1,-1,-1,-1,-1,-1,-1,-1,-1,-1,-1,-1,-1,-1,-1,-1,-1,-1,-1,-1,-1,-1,-1,-1,-1,-1,-1,-1,-1,-1,-1,-1,-1],"split_conditions":[-6.7667854E-1,1.5609341E0,-4.7468254E-1,9.0456086E-1,3.0693728E-1,-1.3111502E-1,2.9579887E-1,-1.8953271E0,-1.019981E0,-1.1396629E0,-1.6513331E-3,-2.4427159E-1,4.8114648E-1,1.1698638E0,-5.855582E-1,-7.3579633E-1,-1.1478585E0,-7.404773E-2,-3.2952836E-1,-6.2166806E-2,8.046004E-1,9.629854E-1,-6.6884315E-1,3.6316495E-2,-7.902217E-1,-4.4986403E-1,-3.847025E-1,-1.7705107E0,9.6808344E-1,-7.110748E-1,2.8433314E-1,-6.798371E-2,-1.0667715E0,-3.4212995E-1,4.386367E-1,-4.8348686E-1,1.640827E-2,-1.1109315E0,-3.289592E-2,-8.8044696E-2,1.0326507E-2,6.5298625E-3,5.796088E-2,5.248056E-1,-1.0174514E0,-6.064625E-2,-1.7172654E0,-1.5571961E-1,-1.8284954E0,-5.333676E-1,1.3569791E0,-1.6050294E-1,-1.3344065E0,8.206624E-1,1.9302908E-1,-5.0431836E-1,1.1790978E0,-3.3791918E-1,1.0665559E0,-1.2641706E-2,8.036476E-2,-6.0556542E-2,5.5931013E-2,-8.814863E-2,-6.20007E-2,3.0987823E-2,-7.030829E-2,8.395877E-2,8.0442205E-3,2.6971808E-2,8.564016E-2,8.1912495E-2,-6.574123E-2,4.5402806E-2,-8.131363E-2,6.663804E-2,-4.7274385E-2,5.6042075E-2,-8.653798E-2,1.8671317E-2,-6.198842E-2,-8.286204E-2,7.45192E-2,-7.23524E-2,4.3559447E-2,-8.627071E-2,5.210052E-2,5.5560242E-2,-8.617442E-2,-3.90605E-2,7.532193E-2,-8.695155E-2,4.4095706E-2,8.205285E-2,-5.708269E-2,6.384214E-2,-4.3403625E-2,8.1958696E-2,-5.0639387E-2,-5.240948E-2,2.9892309E-2,-7.9625905E-2,3.0429522E-2],"split_indices":[37,385,233,467,720,750,566,574,126,72,300,711,690,688,672,342,435,0,487,0,392,260,247,595,688,347,59,162,42,138,593,0,714,467,0,58,121,563,0,0,0,0,0,192,248,520,192,117,463,342,95,593,738,623,284,551,715,342,292,0,0,0,0,0,0,0,0,0,0,0,0,0,0,0,0,0,0,0,0,0,0,0,0,0,0,0,0,0,0,0,0,0,0,0,0,0,0,0,0,0,0,0,0],"split_type":[0,0,0,0,0,0,0,0,0,0,0,0,0,0,0,0,0,0,0,0,0,0,0,0,0,0,0,0,0,0,0,0,0,0,0,0,0,0,0,0,0,0,0,0,0,0,0,0,0,0,0,0,0,0,0,0,0,0,0,0,0,0,0,0,0,0,0,0,0,0,0,0,0,0,0,0,0,0,0,0,0,0,0,0,0,0,0,0,0,0,0,0,0,0,0,0,0,0,0,0,0,0,0],"sum_hessian":[4.7205737E3,1.1963303E3,3.5242434E3,1.0815576E3,1.1477269E2,1.0590559E3,2.4651875E3,1.0534546E3,2.810295E1,7.3760475E1,4.101221E1,5.795165E2,4.7953943E2,1.8618881E3,6.0329944E2,1.1845785E1,1.0416089E3,6.9350243E0,2.1167925E1,3.7194757E0,7.0041E1,3.8061512E1,2.9507008E0,4.28302E1,5.366863E2,3.2762927E2,1.5191016E2,1.7464348E3,1.1545326E2,2.2450346E2,3.7879593E2,2.489186E0,9.356599E0,2.2816023E1,1.01879285E3,4.4591923E0,1.6708733E1,6.879858E1,1.2424248E0,3.682459E1,1.2369224E0,1.2278281E0,1.7228727E0,2.8681423E1,1.4148779E1,1.9103798E1,5.175825E2,6.6420494E1,2.6120877E2,3.219941E1,1.1971074E2,2.9497478E1,1.7169373E3,7.872417E1,3.672909E1,3.768244E1,1.8682103E2,1.6880527E2,2.0999068E2,1.2336502E0,8.122949E0,1.2942512E1,9.873511E0,8.316914E2,1.8710143E2,1.238132E0,3.2210603E0,1.5481681E1,1.227052E0,1.2212555E0,6.7577324E1,2.6701271E1,1.980152E0,1.9723966E0,1.2176383E1,8.180251E0,1.0923547E1,3.1881242E0,5.1439435E2,2.4511211E1,4.1909283E1,8.187767E0,2.5302101E2,1.1425976E1,2.0773434E1,1.1724153E2,2.4692082E0,6.130289E0,2.336719E1,3.227127E1,1.684666E3,7.45535E1,4.1706686E0,3.3249725E1,3.4793665E0,9.855319E0,2.7827124E1,1.8335278E2,3.468242E0,6.183299E1,1.06972275E2,1.9269502E2,1.7295658E1],"tree_param":{"num_deleted":"0","num_feature":"783","num_nodes":"103","size_leaf_vector":"1"}},{"base_weights":[-1.484049E-4,-9.5706207E-1,6.193718E-1,-1.1510595E0,1.468978E0,-5.135654E-1,1.1063359E0,2.5758272E-1,-1.339586E0,1.6377816E0,-1.3355151E0,7.7083933E-1,-1.3229074E0,-2.4680781E-1,1.339111E0,1.2884579E0,-8.8652813E-1,-1.4267756E0,3.009709E-1,1.6649401E0,-3.3336606E-2,-1.0020938E-2,-7.50859E-2,-5.558173E-1,1.4488925E0,-1.487636E0,1.3929796E0,-1.0596592E0,7.728531E-1,1.3940932E0,-9.221227E-1,1.4881685E0,-1.3981798E0,-1.4580045E0,3.17984E-1,9.3128455E-1,-1.4668543E0,1.1851847E0,-9.9492043E-1,2.6367312E-2,8.357656E-2,1.5460994E0,-1.1604275E0,-5.2206063E-1,1.5317422E0,4.034192E-1,-1.6253102E0,-6.1303344E-2,1.6164498E0,-1.4126981E0,5.589899E-1,-8.139565E-1,1.233981E0,1.481028E0,1.5770553E-1,1.3013339E0,-1.6086792E0,-6.093606E-2,7.775989E-2,-7.928667E-2,-1.019334E-2,-7.8958E-2,5.79991E-2,-4.9116395E-2,6.489628E-2,-7.51231E-2,7.7225804E-2,3.7071075E-2,-7.490658E-2,-7.111397E-2,7.148836E-2,-7.403242E-2,3.333045E-2,-1.2828918E-2,8.432674E-2,-7.5994015E-2,3.8728155E-2,-7.7661216E-2,2.846188E-2,7.870307E-2,-3.9710034E-2,6.4253144E-2,-6.15169E-2,-8.3178945E-2,3.6565013E-2,2.4141824E-2,8.244055E-2,-7.757478E-2,5.501739E-2,5.5297893E-2,-5.1733073E-2,4.2638507E-2,-7.303816E-2,7.478931E-2,-3.243788E-2,3.4699198E-2,7.695691E-2,5.8814116E-2,-6.0720008E-2,-1.3781652E-4,7.597708E-2,2.458324E-2,-8.8148475E-2],"categories":[],"categories_nodes":[],"categories_segments":[],"categories_sizes":[],"default_left":[0,0,0,0,0,0,0,0,0,0,0,0,0,0,0,0,0,0,0,0,0,0,0,0,0,0,0,0,0,0,0,0,0,0,0,0,0,0,0,0,0,0,0,0,0,0,0,0,0,0,0,0,0,0,0,0,0,0,0,0,0,0,0,0,0,0,0,0,0,0,0,0,0,0,0,0,0,0,0,0,0,0,0,0,0,0,0,0,0,0,0,0,0,0,0,0,0,0,0,0,0,0,0],"id":4,"left_children":[1,3,5,7,9,11,13,15,17,19,21,23,25,27,29,31,33,35,37,39,-1,-1,-1,41,43,45,47,49,51,53,55,57,59,61,63,65,67,69,71,-1,-1,73,75,77,79,81,83,-1,85,87,89,91,93,95,97,99,101,-1,-1,-1,-1,-1,-1,-1,-1,-1,-1,-1,-1,-1,-1,-1,-1,-1,-1,-1,-1,-1,-1,-1,-1,-1,-1,-1,-1,-1,-1,-1,-1,-1,-1,-1,-1,-1,-1,-1,-1,-1,-1,-1,-1,-1,-1],"loss_changes":[2.7851055E3,8.706251E2,1.5738743E3,4.5449487E2,6.711215E1,8.928837E2,6.2864453E2,2.4021095E2,2.1619287E2,9.234253E0,1.2718372E0,2.9970224E2,2.3770001E2,2.4419041E2,2.129104E2,5.950923E1,6.700278E1,1.3674634E2,8.934867E1,8.26416E-2,0E0,0E0,0E0,1.4553702E2,3.6751495E1,1.3006104E2,1.9911705E1,9.43963E1,9.673199E1,1.7842285E2,6.469267E1,2.0059692E1,1.451087E0,2.268309E1,4.1955597E1,3.8962883E1,9.8423096E1,3.1493958E1,2.6612585E1,0E0,0E0,6.9379234E0,6.26715E1,1.1717823E1,2.2072449E1,5.132028E1,4.301819E1,0E0,2.5519562E-1,4.8711975E1,2.733531E1,3.36519E1,5.113147E1,6.995166E1,1.5560135E2,2.9146042E0,1.1165466E1,0E0,0E0,0E0,0E0,0E0,0E0,0E0,0E0,0E0,0E0,0E0,0E0,0E0,0E0,0E0,0E0,0E0,0E0,0E0,0E0,0E0,0E0,0E0,0E0,0E0,0E0,0E0,0E0,0E0,0E0,0E0,0E0,0E0,0E0,0E0,0E0,0E0,0E0,0E0,0E0,0E0,0E0,0E0,0E0,0E0,0E0],"parents":[2147483647,0,0,1,1,2,2,3,3,4,4,5,5,6,6,7,7,8,8,9,9,10,10,11,11,12,12,13,13,14,14,15,15,16,16,17,17,18,18,19,19,23,23,24,24,25,25,26,26,27,27,28,28,29,29,30,30,31,31,32,32,33,33,34,34,35,35,36,36,37,37,38,38,41,41,42,42,43,43,44,44,45,45,46,46,48,48,49,49,50,50,51,51,52,52,53,53,54,54,55,55,56,56],"right_children":[2,4,6,8,10,12,14,16,18,20,22,24,26,28,30,32,34,36,38,40,-1,-1,-1,42,44,46,48,50,52,54,56,58,60,62,64,66,68,70,72,-1,-1,74,76,78,80,82,84,-1,86,88,90,92,94,96,98,100,102,-1,-1,-1,-1,-1,-1,-1,-1,-1,-1,-1,-1,-1,-1,-1,-1,-1,-1,-1,-1,-1,-1,-1,-1,-1,-1,-1,-1,-1,-1,-1,-1,-1,-1,-1,-1,-1,-1,-1,-1,-1,-1,-1,-1,-1,-1],"split_conditions":[-2.2748747E-1,1.424201E0,-3.192445E-1,-8.3113194E-1,2.3162748E-1,-1.09492086E-1,-5.9715635E-1,-4.886522E-1,1.003956E0,2.5994996E-2,-9.4191855E-1,-3.954591E-1,1.1270562E0,-3.2493502E-1,1.4687904E0,9.268228E-1,-3.8081887E-1,-1.4648886E0,-9.129418E-3,-4.0634227E-1,-3.3336606E-2,-1.0020938E-2,-7.50859E-2,-2.7211112E-1,-1.3052757E0,-3.6517566E-1,-1.2457117E0,5.380508E-1,-1.5716861E-1,7.938865E-1,4.0455714E-1,-1.3619851E0,3.1385118E-1,1.6503744E0,-1.6784254E-1,-6.3393575E-1,-1.5001684E0,-9.368107E-1,1.08276464E-1,2.6367312E-2,8.357656E-2,-6.886696E-1,3.936478E-1,-1.1459692E-1,1.3466829E0,7.3027354E-1,1.3544345E0,-6.1303344E-2,-8.747657E-1,1.874267E0,1.1213977E0,-4.4161406E-1,4.3087175E-1,-8.032347E-1,1.6649356E-1,-7.855462E-1,9.847864E-2,-6.093606E-2,7.775989E-2,-7.928667E-2,-1.019334E-2,-7.8958E-2,5.79991E-2,-4.9116395E-2,6.489628E-2,-7.51231E-2,7.7225804E-2,3.7071075E-2,-7.490658E-2,-7.111397E-2,7.148836E-2,-7.403242E-2,3.333045E-2,-1.2828918E-2,8.432674E-2,-7.5994015E-2,3.8728155E-2,-7.7661216E-2,2.846188E-2,7.870307E-2,-3.9710034E-2,6.4253144E-2,-6.15169E-2,-8.3178945E-2,3.6565013E-2,2.4141824E-2,8.244055E-2,-7.757478E-2,5.501739E-2,5.5297893E-2,-5.1733073E-2,4.2638507E-2,-7.303816E-2,7.478931E-2,-3.243788E-2,3.4699198E-2,7.695691E-2,5.8814116E-2,-6.0720008E-2,-1.3781652E-4,7.597708E-2,2.458324E-2,-8.8148475E-2],"split_indices":[37,35,750,435,711,688,347,711,108,520,681,685,613,34,57,48,667,18,457,490,0,0,0,149,323,711,174,3,403,690,226,134,755,231,640,138,386,626,220,0,0,236,397,692,306,364,621,0,252,775,437,242,169,685,187,399,628,0,0,0,0,0,0,0,0,0,0,0,0,0,0,0,0,0,0,0,0,0,0,0,0,0,0,0,0,0,0,0,0,0,0,0,0,0,0,0,0,0,0,0,0,0,0],"split_type":[0,0,0,0,0,0,0,0,0,0,0,0,0,0,0,0,0,0,0,0,0,0,0,0,0,0,0,0,0,0,0,0,0,0,0,0,0,0,0,0,0,0,0,0,0,0,0,0,0,0,0,0,0,0,0,0,0,0,0,0,0,0,0,0,0,0,0,0,0,0,0,0,0,0,0,0,0,0,0,0,0,0,0,0,0,0,0,0,0,0,0,0,0,0,0,0,0,0,0,0,0,0,0],"sum_hessian":[4.696004E3,1.8452609E3,2.850743E3,1.7091174E3,1.361434E2,8.5695526E2,1.9937877E3,2.0169756E2,1.5074199E3,1.288065E2,7.336903E0,3.3127618E2,5.256791E2,2.9263156E2,1.7011561E3,1.06032875E2,9.566468E1,1.4314728E3,7.594715E1,1.2758051E2,1.2259898E0,1.2188097E0,6.118093E0,1.12108536E2,2.1916763E2,4.9604443E2,2.9634672E1,1.6280653E2,1.2982504E2,1.6611486E3,4.000758E1,9.911153E1,6.9213505E0,6.473903E1,3.0925652E1,2.3551779E1,1.407921E3,4.519505E1,3.07521E1,1.2015795E0,1.2637894E2,2.4696033E1,8.7412506E1,8.627301E0,2.1054034E2,3.353173E1,4.625127E2,1.9770759E0,2.7657597E1,1.337598E2,2.904673E1,2.9060024E1,1.00765015E2,1.5518356E3,1.0931297E2,9.227686E0,3.0779896E1,1.9797583E0,9.713177E1,5.698696E0,1.2226543E0,6.2254807E1,2.484228E0,1.3289288E1,1.7636364E1,4.4481654E0,1.9103613E1,1.9345728E1,1.3885752E3,3.4628534E0,4.1732197E1,2.3879951E1,6.8721485E0,1.7250929E0,2.297094E1,7.389918E1,1.3513325E1,4.21823E0,4.409071E0,2.0709561E2,3.444719E0,2.191754E1,1.161419E1,4.5541144E2,7.1012816E0,1.2094845E0,2.644811E1,1.27121414E2,6.6383862E0,2.185258E1,7.194151E0,8.035439E0,2.1024586E1,8.864409E1,1.2120925E1,1.0758935E2,1.4442462E3,6.282088E1,4.6492092E1,1.4642358E0,7.7634497E0,1.9567106E0,2.8823185E1],"tree_param":{"num_deleted":"0","num_feature":"783","num_nodes":"103","size_leaf_vector":"1"}},{"base_weights":[7.2725858E-3,-1.2857857E0,4.3049178E-1,-1.4544845E0,4.63255E-1,8.787974E-1,-6.615212E-1,-3.984756E-1,-1.5264413E0,1.4326866E0,-1.2891474E0,1.1383504E0,-7.0555216E-1,1.0098158E0,-1.1210383E0,1.199057E0,-1.0779554E0,-1.5557523E0,3.0080063E-2,1.5966203E0,-1.0477898E0,-1.5734748E0,1.0045601E0,-7.0899534E-1,1.3268421E0,9.7057956E-1,-1.2373521E0,-1.310391E0,1.4076949E0,-1.3018168E0,1.4770893E0,-5.3919077E-2,1.563613E0,-1.4187607E0,9.8887295E-1,4.0803677E-1,-1.5725545E0,6.9315195E-2,-9.2341846E-1,6.3073747E-3,8.11709E-2,-6.4363874E-2,-9.904027E-3,1.0125146E-2,-8.238032E-2,8.28489E-3,6.2381815E-2,-1.5731763E0,6.088467E-1,2.5966278E-1,1.4244921E0,-1.1294478E0,1.221718E0,1.4666325E0,-1.4143655E0,4.4728038E-1,-1.6965263E0,1.5706204E0,-1.0487705E0,-1.38903E0,1.1613585E0,8.019919E-2,-5.9321076E-2,3.7315225E-3,8.3255574E-2,3.1879842E-2,-7.884766E-2,8.154454E-2,-3.677667E-2,-6.8599604E-2,7.644848E-2,4.1529838E-2,-7.920935E-2,-7.312731E-2,3.934307E-2,-8.4736176E-2,1.5807157E-2,5.448664E-2,-5.977833E-2,5.52949E-2,-3.3464152E-2,7.605371E-2,3.804063E-2,-7.814393E-2,3.754473E-2,-6.4622844E-3,7.056203E-2,7.5656394E-3,7.787876E-2,2.9319277E-2,-7.854242E-2,-6.0785454E-2,5.7999153E-2,-8.809928E-2,-8.95633E-3,7.9992644E-2,-3.4036335E-2,5.5485316E-2,-7.5168826E-2,5.0276447E-2,-7.230418E-2,7.866788E-2,-6.809106E-2],"categories":[],"categories_nodes":[],"categories_segments":[],"categories_sizes":[],"default_left":[0,0,0,0,0,0,0,0,0,0,0,0,0,0,0,0,0,0,0,0,0,0,0,0,0,0,0,0,0,0,0,0,0,0,0,0,0,0,0,0,0,0,0,0,0,0,0,0,0,0,0,0,0,0,0,0,0,0,0,0,0,0,0,0,0,0,0,0,0,0,0,0,0,0,0,0,0,0,0,0,0,0,0,0,0,0,0,0,0,0,0,0,0,0,0,0,0,0,0,0,0,0,0],"id":5,"left_children":[1,3,5,7,9,11,13,15,17,19,21,23,25,27,29,31,33,35,37,39,41,43,45,47,49,51,53,55,57,59,61,-1,63,65,67,69,71,-1,73,-1,-1,-1,-1,-1,-1,-1,-1,75,77,79,81,83,85,87,89,91,93,95,97,99,101,-1,-1,-1,-1,-1,-1,-1,-1,-1,-1,-1,-1,-1,-1,-1,-1,-1,-1,-1,-1,-1,-1,-1,-1,-1,-1,-1,-1,-1,-1,-1,-1,-1,-1,-1,-1,-1,-1,-1,-1,-1,-1],"loss_changes":[2.5332734E3,3.3748694E2,1.7079592E3,7.851953E1,1.7372417E2,1.0177473E3,7.8114355E2,7.487071E1,4.45083E1,2.8353134E1,2.5424568E1,7.409756E2,3.12039E2,2.0452095E2,3.7630133E2,1.8872868E1,3.5271824E1,3.2203857E1,2.5841824E1,2.236023E0,6.955905E-1,4.6675797E0,7.3993444E-1,2.2579337E2,2.0063403E2,4.597284E1,1.2899466E2,2.2922054E1,7.684488E1,1.6181873E2,1.9586983E1,0E0,2.6341896E0,1.4566353E1,9.387123E0,1.987336E1,2.7834717E1,0E0,1.1987655E1,0E0,0E0,0E0,0E0,0E0,0E0,0E0,0E0,2.7980957E1,6.977385E1,1.2881349E2,1.12101074E2,8.957683E0,1.9641762E1,1.7719154E0,7.899924E1,9.319341E0,2.3644867E0,1.2711731E1,1.3724362E1,9.991699E1,2.921944E1,0E0,0E0,0E0,0E0,0E0,0E0,0E0,0E0,0E0,0E0,0E0,0E0,0E0,0E0,0E0,0E0,0E0,0E0,0E0,0E0,0E0,0E0,0E0,0E0,0E0,0E0,0E0,0E0,0E0,0E0,0E0,0E0,0E0,0E0,0E0,0E0,0E0,0E0,0E0,0E0,0E0,0E0],"parents":[2147483647,0,0,1,1,2,2,3,3,4,4,5,5,6,6,7,7,8,8,9,9,10,10,11,11,12,12,13,13,14,14,15,15,16,16,17,17,18,18,19,19,20,20,21,21,22,22,23,23,24,24,25,25,26,26,27,27,28,28,29,29,30,30,32,32,33,33,34,34,35,35,36,36,38,38,47,47,48,48,49,49,50,50,51,51,52,52,53,53,54,54,55,55,56,56,57,57,58,58,59,59,60,60],"right_children":[2,4,6,8,10,12,14,16,18,20,22,24,26,28,30,32,34,36,38,40,42,44,46,48,50,52,54,56,58,60,62,-1,64,66,68,70,72,-1,74,-1,-1,-1,-1,-1,-1,-1,-1,76,78,80,82,84,86,88,90,92,94,96,98,100,102,-1,-1,-1,-1,-1,-1,-1,-1,-1,-1,-1,-1,-1,-1,-1,-1,-1,-1,-1,-1,-1,-1,-1,-1,-1,-1,-1,-1,-1,-1,-1,-1,-1,-1,-1,-1,-1,-1,-1,-1,-1,-1],"split_conditions":[-7.1020764E-1,1.6140509E0,4.849771E-1,-7.402051E-1,2.9784903E-1,9.394987E-1,-3.3087665E-1,-7.913411E-1,9.306696E-1,2.1306019E-1,6.4977646E-1,-7.9072607E-1,-3.5874635E-1,-3.558003E-1,1.7101824E0,-1.3791348E0,5.4733384E-1,-1.8953271E0,-5.244535E-2,-1.0648968E0,6.869944E-1,-7.551567E-1,-2.3718698E-1,-5.83261E-1,-7.234694E-1,-1.853016E0,-1.2257302E0,-3.9451665E-1,8.38208E-1,1.9692351E0,-1.9973059E-1,-5.3919077E-2,-6.9981056E-1,-8.9070016E-1,3.2633996E-1,-7.7801275E-1,-1.5001684E0,6.9315195E-2,4.8443845E-1,6.3073747E-3,8.11709E-2,-6.4363874E-2,-9.904027E-3,1.0125146E-2,-8.238032E-2,8.28489E-3,6.2381815E-2,7.950672E-1,1.0807989E0,-4.9233752E-1,4.9146634E-1,1.684757E0,-1.5258123E-1,-4.4406283E-1,-5.080882E-1,-8.671846E-1,8.270439E-1,8.1089324E-1,-1.4911243E-1,-1.3171124E0,6.7828577E-3,8.019919E-2,-5.9321076E-2,3.7315225E-3,8.3255574E-2,3.1879842E-2,-7.884766E-2,8.154454E-2,-3.677667E-2,-6.8599604E-2,7.644848E-2,4.1529838E-2,-7.920935E-2,-7.312731E-2,3.934307E-2,-8.4736176E-2,1.5807157E-2,5.448664E-2,-5.977833E-2,5.52949E-2,-3.3464152E-2,7.605371E-2,3.804063E-2,-7.814393E-2,3.754473E-2,-6.4622844E-3,7.056203E-2,7.5656394E-3,7.787876E-2,2.9319277E-2,-7.854242E-2,-6.0785454E-2,5.7999153E-2,-8.809928E-2,-8.95633E-3,7.9992644E-2,-3.4036335E-2,5.5485316E-2,-7.5168826E-2,5.0276447E-2,-7.230418E-2,7.866788E-2,-6.809106E-2],"split_indices":[37,385,688,435,720,482,711,711,467,768,694,30,304,738,367,507,766,574,390,591,144,721,400,426,738,45,595,150,494,775,213,0,540,565,59,762,386,0,496,0,0,0,0,0,0,0,0,765,18,688,242,535,516,729,510,223,703,376,625,46,318,0,0,0,0,0,0,0,0,0,0,0,0,0,0,0,0,0,0,0,0,0,0,0,0,0,0,0,0,0,0,0,0,0,0,0,0,0,0,0,0,0,0],"split_type":[0,0,0,0,0,0,0,0,0,0,0,0,0,0,0,0,0,0,0,0,0,0,0,0,0,0,0,0,0,0,0,0,0,0,0,0,0,0,0,0,0,0,0,0,0,0,0,0,0,0,0,0,0,0,0,0,0,0,0,0,0,0,0,0,0,0,0,0,0,0,0,0,0,0,0,0,0,0,0,0,0,0,0,0,0,0,0,0,0,0,0,0,0,0,0,0,0,0,0,0,0,0,0],"sum_hessian":[4.6271104E3,1.1405029E3,3.4866077E3,1.0403293E3,1.0017363E2,2.4719783E3,1.01462946E3,6.678332E1,9.7354596E2,6.46124E1,3.5561234E1,2.1242576E3,3.477207E2,2.1854585E2,7.960836E2,1.9700523E1,4.7082794E1,9.555524E2,1.7993576E1,6.0941147E1,3.6712503E0,3.1918612E1,3.6426203E0,1.9642262E2,1.9278348E3,8.3552895E1,2.6416782E2,3.165548E1,1.8689037E2,7.4476184E2,5.1321793E1,2.4481962E0,1.7252327E1,4.06873E1,6.395492E0,7.9087815E0,9.476436E2,7.240716E0,1.0752861E1,1.1928571E0,5.974829E1,2.4622982E0,1.2089522E0,1.209551E0,3.070906E1,1.1961942E0,2.4464262E0,1.1851326E2,7.790936E1,1.6192107E2,1.7659138E3,8.551092E0,7.500181E1,1.578329E1,2.4838454E2,5.673157E0,2.5982323E1,1.7560402E2,1.12863455E1,7.197151E2,2.5046722E1,4.9367622E1,1.9541694E0,1.2117169E0,1.6040611E1,2.6899464E0,3.7997356E1,4.6998935E0,1.6955982E0,2.9694128E0,4.9393687E0,4.225811E0,9.434178E2,8.285797E0,2.4670634E0,1.1144647E2,7.066783E0,6.1827946E1,1.6081413E1,8.4633026E1,7.728804E1,1.540448E3,2.254658E2,7.0864525E0,1.4646393E0,9.266428E0,6.5735374E1,1.1929705E0,1.459032E1,1.7818184E1,2.3056635E2,1.4902046E0,4.1829524E0,2.4753298E1,1.229024E0,1.7363881E2,1.9652164E0,1.7128196E0,9.573525E0,1.636223E1,7.0335284E2,2.1854614E1,3.192108E0],"tree_param":{"num_deleted":"0","num_feature":"783","num_nodes":"103","size_leaf_vector":"1"}},{"base_weights":[1.8308107E-3,8.1473607E-1,-5.7088304E-1,-1.3654531E0,1.060981E0,4.3516803E-1,-1.05728E0,-1.5357476E0,4.5164782E-1,1.2051721E0,-1.0427803E0,-1.5131515E0,8.757011E-1,8.422925E-1,-1.202963E0,3.085857E-1,-1.5790352E0,1.2305164E0,-1.0928491E0,1.3803202E0,-2.4101359E-1,9.169458E-1,-1.4596046E0,9.4583625E-1,-1.5932833E0,-8.3800197E-1,1.1454084E0,-1.3881598E0,1.2750179E0,-1.3318661E0,4.5524055E-1,-5.3010523E-2,6.035014E-2,1.4877306E-2,-1.6021669E0,7.843395E-2,-4.8596695E-2,-7.152266E-2,9.766997E-3,-9.252015E-1,1.4224993E0,1.1458302E0,-1.0315343E0,-8.620028E-1,1.4020891E0,6.0312957E-1,-1.6907475E0,-1.1661005E-2,6.520658E-2,-1.6222084E0,4.728074E-2,8.725078E-2,-1.5250062E0,-1.3043996E0,1.2980629E0,-1.5392834E0,3.1241214E-2,1.4679462E0,-1.3881165E-1,-7.6696676E-1,-1.4971018E0,-1.130914E0,1.3570323E0,-1.3428747E-2,-8.1473775E-2,-8.016735E-2,4.259169E-2,-5.031002E-3,7.3451184E-2,7.3825374E-2,-1.8720431E-2,5.282733E-2,-6.5828376E-2,2.6361717E-2,-7.237168E-2,3.972364E-3,7.515048E-2,-5.6403365E-2,6.631255E-2,2.6149312E-2,-8.779774E-2,-1.1722603E-2,-8.191146E-2,-3.6420032E-2,6.367078E-2,2.5393948E-4,-8.153766E-2,-8.37018E-2,4.7928758E-2,7.28509E-2,-4.829864E-2,-2.3824379E-2,-7.904282E-2,7.787325E-2,-2.7668333E-2,-5.0342184E-2,6.314411E-2,-7.062788E-2,3.0523777E-2,-4.775311E-2,-7.930741E-2,6.2587515E-2,-7.243928E-2,7.73958E-2,2.8506934E-3],"categories":[],"categories_nodes":[],"categories_segments":[],"categories_sizes":[],"default_left":[0,0,0,0,0,0,0,0,0,0,0,0,0,0,0,0,0,0,0,0,0,0,0,0,0,0,0,0,0,0,0,0,0,0,0,0,0,0,0,0,0,0,0,0,0,0,0,0,0,0,0,0,0,0,0,0,0,0,0,0,0,0,0,0,0,0,0,0,0,0,0,0,0,0,0,0,0,0,0,0,0,0,0,0,0,0,0,0,0,0,0,0,0,0,0,0,0,0,0,0,0,0,0,0,0],"id":6,"left_children":[1,3,5,7,9,11,13,15,17,19,21,23,25,27,29,31,33,35,37,39,41,43,45,47,49,51,53,55,57,59,61,-1,-1,-1,63,-1,-1,-1,-1,65,67,69,71,73,75,77,79,-1,-1,81,-1,83,85,87,89,91,-1,93,95,97,99,101,103,-1,-1,-1,-1,-1,-1,-1,-1,-1,-1,-1,-1,-1,-1,-1,-1,-1,-1,-1,-1,-1,-1,-1,-1,-1,-1,-1,-1,-1,-1,-1,-1,-1,-1,-1,-1,-1,-1,-1,-1,-1,-1],"loss_changes":[2.1401248E3,1.0214878E3,1.3201405E3,6.049585E1,5.192909E2,7.563097E2,5.0418115E2,1.4612427E1,2.2195087E1,4.0527075E2,9.125575E1,3.354236E1,3.3284027E2,1.2733904E2,3.616538E2,7.2978754E0,7.9877625E0,1.04564705E1,3.0367002E0,1.3999902E2,1.914513E2,1.8400953E1,4.448172E1,2.7367692E0,1.3124115E1,6.2566063E1,2.338675E2,7.538185E0,3.006694E1,1.451687E2,1.7687271E2,0E0,0E0,0E0,5.792877E0,0E0,0E0,0E0,0E0,3.2972622E1,9.941797E1,3.2466682E1,6.749534E1,4.738391E0,2.0206718E0,1.3917646E1,1.2788895E1,0E0,0E0,3.0933838E0,0E0,4.2334698E1,9.137222E0,3.2483448E1,2.11906E2,1.4796448E-1,0E0,1.8309082E1,1.8377867E1,3.1815106E2,5.6972412E1,3.5878105E1,1.9417618E1,0E0,0E0,0E0,0E0,0E0,0E0,0E0,0E0,0E0,0E0,0E0,0E0,0E0,0E0,0E0,0E0,0E0,0E0,0E0,0E0,0E0,0E0,0E0,0E0,0E0,0E0,0E0,0E0,0E0,0E0,0E0,0E0,0E0,0E0,0E0,0E0,0E0,0E0,0E0,0E0,0E0,0E0],"parents":[2147483647,0,0,1,1,2,2,3,3,4,4,5,5,6,6,7,7,8,8,9,9,10,10,11,11,12,12,13,13,14,14,15,15,16,16,17,17,18,18,19,19,20,20,21,21,22,22,23,23,24,24,25,25,26,26,27,27,28,28,29,29,30,30,34,34,39,39,40,40,41,41,42,42,43,43,44,44,45,45,46,46,49,49,51,51,52,52,53,53,54,54,55,55,57,57,58,58,59,59,60,60,61,61,62,62],"right_children":[2,4,6,8,10,12,14,16,18,20,22,24,26,28,30,32,34,36,38,40,42,44,46,48,50,52,54,56,58,60,62,-1,-1,-1,64,-1,-1,-1,-1,66,68,70,72,74,76,78,80,-1,-1,82,-1,84,86,88,90,92,-1,94,96,98,100,102,104,-1,-1,-1,-1,-1,-1,-1,-1,-1,-1,-1,-1,-1,-1,-1,-1,-1,-1,-1,-1,-1,-1,-1,-1,-1,-1,-1,-1,-1,-1,-1,-1,-1,-1,-1,-1,-1,-1,-1,-1,-1,-1],"split_conditions":[-1.9055606E-1,-1.3344065E0,-3.7692153E-1,3.7304804E-1,1.6433696E0,-9.2530715E-1,-9.123461E-1,-3.8994387E-1,1.9910805E-1,9.847207E-1,-2.232869E-1,-7.948349E-1,-2.1744882E-1,-1.1469094E0,9.379607E-1,1.642495E-1,-1.4497325E0,5.732976E-1,2.098059E-1,-1.6469411E0,-2.056367E-1,-5.3697854E-1,-2.756721E-1,-5.4752506E-2,1.4246522E0,7.9550296E-1,-1.2776731E0,1.361127E0,-2.5582707E-2,-7.7921286E-2,-1.1671915E-1,-5.3010523E-2,6.035014E-2,1.4877306E-2,-8.5910213E-1,7.843395E-2,-4.8596695E-2,-7.152266E-2,9.766997E-3,-1.7434281E-1,-1.2118399E0,1.0403506E0,-7.7156496E-1,-7.4463636E-2,-1.0558842E0,1.2041552E-1,-7.676418E-1,-1.1661005E-2,6.520658E-2,-1.2075917E0,4.728074E-2,5.2741125E-2,-5.7368916E-1,1.8086082E-1,9.2273396E-1,-1.2090212E-1,3.1241214E-2,2.2710961E-1,2.069676E-1,-1.593412E-1,-8.1309724E-1,-7.013879E-2,2.7957797E-2,-1.3428747E-2,-8.1473775E-2,-8.016735E-2,4.259169E-2,-5.031002E-3,7.3451184E-2,7.3825374E-2,-1.8720431E-2,5.282733E-2,-6.5828376E-2,2.6361717E-2,-7.237168E-2,3.972364E-3,7.515048E-2,-5.6403365E-2,6.631255E-2,2.6149312E-2,-8.779774E-2,-1.1722603E-2,-8.191146E-2,-3.6420032E-2,6.367078E-2,2.5393948E-4,-8.153766E-2,-8.37018E-2,4.7928758E-2,7.28509E-2,-4.829864E-2,-2.3824379E-2,-7.904282E-2,7.787325E-2,-2.7668333E-2,-5.0342184E-2,6.314411E-2,-7.062788E-2,3.0523777E-2,-4.775311E-2,-7.930741E-2,6.2587515E-2,-7.243928E-2,7.73958E-2,2.8506934E-3],"split_indices":[688,738,690,631,255,750,728,73,724,482,212,782,738,347,302,21,728,24,60,503,304,115,485,570,93,46,777,402,485,711,673,0,0,0,595,0,0,0,0,375,21,552,546,175,375,409,394,0,0,227,0,479,381,48,191,408,0,318,478,738,447,593,531,0,0,0,0,0,0,0,0,0,0,0,0,0,0,0,0,0,0,0,0,0,0,0,0,0,0,0,0,0,0,0,0,0,0,0,0,0,0,0,0,0,0],"split_type":[0,0,0,0,0,0,0,0,0,0,0,0,0,0,0,0,0,0,0,0,0,0,0,0,0,0,0,0,0,0,0,0,0,0,0,0,0,0,0,0,0,0,0,0,0,0,0,0,0,0,0,0,0,0,0,0,0,0,0,0,0,0,0,0,0,0,0,0,0,0,0,0,0,0,0,0,0,0,0,0,0,0,0,0,0,0,0,0,0,0,0,0,0,0,0,0,0,0,0,0,0,0,0,0,0],"sum_hessian":[4.5948633E3,1.8990066E3,2.6958567E3,1.9225815E2,1.7067484E3,8.7862866E2,1.8172279E3,1.7592564E2,1.6332508E1,1.5976718E3,1.0907665E2,1.6158066E2,7.17048E2,1.2910005E2,1.6881279E3,3.8938398E0,1.720318E2,1.0992454E1,5.3400536E0,1.4251205E3,1.7255135E2,1.8920568E1,9.015609E1,4.758355E0,1.568223E2,9.721877E1,6.198292E2,2.0618017E1,1.0848204E2,1.5665465E3,1.2158133E2,1.47163E0,2.42221E0,1.9502821E0,1.7008153E2,9.778784E0,1.2136703E0,4.1436605E0,1.1963933E0,2.522781E1,1.3998927E3,6.2483845E1,1.100675E2,3.8877964E0,1.5032772E1,8.922428E0,8.123366E1,1.19034E0,3.5680153E0,1.5541278E2,1.4095237E0,4.1798214E1,5.5420563E1,3.5915234E1,5.8391394E2,1.9397112E1,1.2209041E0,9.542259E1,1.3059446E1,3.5579916E2,1.2107474E3,4.39768E1,7.760452E1,3.630364E0,1.6645116E2,1.833038E1,6.89743E0,4.1458378E1,1.3584343E3,5.1344357E1,1.1139489E1,1.2895035E1,9.717246E1,1.1820884E0,2.705708E0,1.1924181E0,1.3840353E1,2.4638424E0,6.4585853E0,2.1234608E0,7.91102E1,1.9520886E0,1.534607E2,2.4995968E1,1.6802246E1,3.6441505E0,5.177641E1,3.10962E1,4.8190312E0,5.459407E2,3.7973312E1,1.1992891E0,1.8197823E1,9.1595535E1,3.8270605E0,8.238967E0,4.8204794E0,2.4223909E2,1.1356007E2,1.724912E2,1.0382562E3,4.8305597E0,3.914624E1,6.750237E1,1.0102157E1],"tree_param":{"num_deleted":"0","num_feature":"783","num_nodes":"105","size_leaf_vector":"1"}},{"base_weights":[1.1859041E-2,-1.2127135E0,4.150433E-1,-1.3645009E0,3.5571262E-1,-5.885515E-1,8.656951E-1,-4.0713555E-1,-1.4309875E0,1.3636361E0,-1.2508458E0,3.443279E-1,-1.2303814E0,1.133589E0,-2.6323168E-2,6.7295384E-1,-1.3471562E0,-1.4478463E0,7.942237E-1,-6.187427E-2,1.5032288E0,7.907646E-1,-1.5294684E0,1.1409824E0,-1.0257593E0,-1.306813E0,6.5925986E-1,1.2402488E0,-7.1157414E-1,-1.3053576E0,7.091909E-1,1.2904481E0,-1.279114E0,-1.4665706E0,4.3473203E-2,-1.4641303E0,3.6413285E-1,1.4799747E0,-5.2959003E-2,-1.3075198E-2,7.72118E-2,6.445422E-2,-2.5993073E-2,-7.765349E-2,-2.3401257E-2,-5.091233E-1,1.3486286E0,2.5200978E-1,-1.4514192E0,-1.3865079E0,2.8421926E-1,-1.1885959E0,1.4427094E0,-5.76265E-1,1.3028468E0,1.0979798E0,-1.324303E0,-1.4273988E0,7.098996E-2,1.2612828E0,-6.177541E-1,-5.2197345E-2,7.412619E-2,-8.66571E-3,-7.193229E-2,-7.928987E-2,1.8309364E-2,6.3216477E-3,-7.396617E-2,7.064077E-2,-6.31491E-2,8.0755845E-2,2.4026802E-2,-6.915907E-2,4.9014013E-2,-4.4391494E-2,7.298019E-2,5.7258308E-2,-5.0711907E-2,-7.616075E-2,2.1966837E-2,-3.598222E-2,-7.449544E-2,-4.9586046E-2,7.404562E-2,-7.231652E-2,8.172263E-3,8.072915E-2,-2.666817E-2,-6.3321136E-2,2.651584E-2,9.638621E-3,6.840717E-2,-2.900703E-2,6.906934E-2,-8.1347935E-2,5.9865493E-2,-7.554591E-2,3.1684905E-2,6.913812E-2,-7.075139E-2,-6.4701684E-2,6.1420925E-2],"categories":[],"categories_nodes":[],"categories_segments":[],"categories_sizes":[],"default_left":[0,0,0,0,0,0,0,0,0,0,0,0,0,0,0,0,0,0,0,0,0,0,0,0,0,0,0,0,0,0,0,0,0,0,0,0,0,0,0,0,0,0,0,0,0,0,0,0,0,0,0,0,0,0,0,0,0,0,0,0,0,0,0,0,0,0,0,0,0,0,0,0,0,0,0,0,0,0,0,0,0,0,0,0,0,0,0,0,0,0,0,0,0,0,0,0,0,0,0,0,0,0,0],"id":7,"left_children":[1,3,5,7,9,11,13,15,17,19,21,23,25,27,29,31,33,35,37,-1,39,41,43,45,47,49,51,53,55,57,59,61,63,65,-1,67,69,71,-1,-1,-1,-1,-1,-1,-1,73,75,77,79,81,83,85,87,89,91,93,95,97,-1,99,101,-1,-1,-1,-1,-1,-1,-1,-1,-1,-1,-1,-1,-1,-1,-1,-1,-1,-1,-1,-1,-1,-1,-1,-1,-1,-1,-1,-1,-1,-1,-1,-1,-1,-1,-1,-1,-1,-1,-1,-1,-1,-1],"loss_changes":[2.2082744E3,2.6422778E2,1.5223064E3,6.3724976E1,1.6128171E2,6.250978E2,5.550255E2,6.893637E1,3.6574707E1,2.4021515E1,2.3117134E1,4.6615976E2,9.0159E1,3.5239722E2,5.0646457E2,4.0037544E1,1.0846062E1,2.8196655E1,1.1412804E1,0E0,4.628372E0,4.121169E0,1.306076E-1,9.3148895E1,8.584497E1,7.578528E1,3.7473907E1,1.9279199E2,1.1037872E2,6.739554E1,2.5120216E2,1.2618584E1,1.1893158E0,8.159195E0,0E0,2.2646484E1,1.7399614E1,4.391098E-2,0E0,0E0,0E0,0E0,0E0,0E0,0E0,4.1567047E1,6.085321E1,4.654017E1,1.6692566E1,3.798291E1,4.604192E1,2.9902277E0,6.9059525E0,4.4168068E1,1.18096436E2,1.2879942E1,5.830316E1,3.342749E1,0E0,8.054492E1,1.2782392E2,0E0,0E0,0E0,0E0,0E0,0E0,0E0,0E0,0E0,0E0,0E0,0E0,0E0,0E0,0E0,0E0,0E0,0E0,0E0,0E0,0E0,0E0,0E0,0E0,0E0,0E0,0E0,0E0,0E0,0E0,0E0,0E0,0E0,0E0,0E0,0E0,0E0,0E0,0E0,0E0,0E0,0E0],"parents":[2147483647,0,0,1,1,2,2,3,3,4,4,5,5,6,6,7,7,8,8,9,9,10,10,11,11,12,12,13,13,14,14,15,15,16,16,17,17,18,18,20,20,21,21,22,22,23,23,24,24,25,25,26,26,27,27,28,28,29,29,30,30,31,31,32,32,33,33,35,35,36,36,37,37,45,45,46,46,47,47,48,48,49,49,50,50,51,51,52,52,53,53,54,54,55,55,56,56,57,57,59,59,60,60],"right_children":[2,4,6,8,10,12,14,16,18,20,22,24,26,28,30,32,34,36,38,-1,40,42,44,46,48,50,52,54,56,58,60,62,64,66,-1,68,70,72,-1,-1,-1,-1,-1,-1,-1,74,76,78,80,82,84,86,88,90,92,94,96,98,-1,100,102,-1,-1,-1,-1,-1,-1,-1,-1,-1,-1,-1,-1,-1,-1,-1,-1,-1,-1,-1,-1,-1,-1,-1,-1,-1,-1,-1,-1,-1,-1,-1,-1,-1,-1,-1,-1,-1,-1,-1,-1,-1,-1],"split_conditions":[-7.1020764E-1,1.6140509E0,-4.482027E-1,-7.402051E-1,2.9784903E-1,1.2297301E-1,4.849771E-1,-3.5488597E-1,1.2439655E0,-1.2959713E0,1.01651214E-1,5.761071E-1,1.4055252E0,1.5078323E0,-2.1208213E-1,5.2286005E-1,1.4072603E0,1.1507287E0,-5.465122E-1,-6.187427E-2,-8.502375E-1,3.2212564E-1,7.647908E-1,-5.0618327E-1,1.3372622E-1,9.379607E-1,-7.318096E-1,-1.2329488E0,-2.8016895E-1,1.751902E0,1.3558955E-2,-2.0866349E0,-1.8323404E-1,5.1458615E-1,4.3473203E-2,-1.8263414E0,4.6441892E-1,1.0916187E0,-5.2959003E-2,-1.3075198E-2,7.72118E-2,6.445422E-2,-2.5993073E-2,-7.765349E-2,-2.3401257E-2,9.048748E-1,-7.63476E-1,7.6604374E-2,8.735484E-1,-4.6999297E-1,-4.4565937E-1,2.5875464E-1,7.06276E-1,1.4073163E-1,-8.084303E-1,-3.2383978E-1,6.222801E-1,1.1174724E0,7.098996E-2,1.3100914E0,5.5749893E-1,-5.2197345E-2,7.412619E-2,-8.66571E-3,-7.193229E-2,-7.928987E-2,1.8309364E-2,6.3216477E-3,-7.396617E-2,7.064077E-2,-6.31491E-2,8.0755845E-2,2.4026802E-2,-6.915907E-2,4.9014013E-2,-4.4391494E-2,7.298019E-2,5.7258308E-2,-5.0711907E-2,-7.616075E-2,2.1966837E-2,-3.598222E-2,-7.449544E-2,-4.9586046E-2,7.404562E-2,-7.231652E-2,8.172263E-3,8.072915E-2,-2.666817E-2,-6.3321136E-2,2.651584E-2,9.638621E-3,6.840717E-2,-2.900703E-2,6.906934E-2,-8.1347935E-2,5.9865493E-2,-7.554591E-2,3.1684905E-2,6.913812E-2,-7.075139E-2,-6.4701684E-2,6.1420925E-2],"split_indices":[37,385,233,435,720,18,688,711,38,72,312,659,271,255,750,705,516,467,696,0,414,23,8,750,593,302,409,738,510,70,123,102,239,645,0,574,369,752,0,0,0,0,0,0,0,213,738,782,37,688,228,37,385,622,30,516,217,115,0,598,652,0,0,0,0,0,0,0,0,0,0,0,0,0,0,0,0,0,0,0,0,0,0,0,0,0,0,0,0,0,0,0,0,0,0,0,0,0,0,0,0,0,0],"split_type":[0,0,0,0,0,0,0,0,0,0,0,0,0,0,0,0,0,0,0,0,0,0,0,0,0,0,0,0,0,0,0,0,0,0,0,0,0,0,0,0,0,0,0,0,0,0,0,0,0,0,0,0,0,0,0,0,0,0,0,0,0,0,0,0,0,0,0,0,0,0,0,0,0,0,0,0,0,0,0,0,0,0,0,0,0,0,0,0,0,0,0,0,0,0,0,0,0,0,0,0,0,0,0],"sum_hessian":[4.4706313E3,1.1068477E3,3.3637837E3,1.0093006E3,9.754702E1,1.0422974E3,2.3214863E3,6.60042E1,9.432964E2,6.003404E1,3.7512985E1,4.2501495E2,6.1728235E2,1.7851066E3,5.363798E2,3.0846033E1,3.515817E1,9.365502E2,6.746224E0,2.6571221E0,5.7376915E1,4.283977E0,3.3229008E1,2.688538E2,1.561612E2,5.935818E2,2.3700605E1,1.6878671E3,9.723952E1,1.9555005E2,3.4082974E2,2.3690872E1,7.15516E0,3.368202E1,1.4761529E0,9.2839874E2,8.151385E0,5.0713353E0,1.6748883E0,1.1808834E0,5.6196033E1,3.1157558E0,1.1682214E0,3.2053135E1,1.1758734E0,2.988828E1,2.389655E2,3.912414E1,1.1703705E2,5.6538995E2,2.8191833E1,6.902689E0,1.6797916E1,5.595372E1,1.6319133E3,2.4396908E1,7.2842606E1,1.8762386E2,7.9261827E0,2.4072331E2,1.00106445E2,1.463928E0,2.2226946E1,1.1651658E0,5.989994E0,3.1751247E1,1.9307699E0,8.714914E0,9.1968384E2,5.036831E0,3.1145542E0,3.9246306E0,1.1467049E0,1.8879906E1,1.1008374E1,1.0966176E1,2.2799933E2,2.2997986E1,1.6126158E1,1.12942764E2,4.0942783E0,7.696693E1,4.88423E2,1.3727044E1,1.4464789E1,5.738955E0,1.1637341E0,1.5622082E1,1.175834E0,3.4371998E1,2.1581722E1,9.087898E1,1.5410343E3,3.373658E0,2.102325E1,6.535339E1,7.4892197E0,1.8057362E2,7.050236E0,2.307335E2,9.989809E0,7.34864E1,2.6620049E1],"tree_param":{"num_deleted":"0","num_feature":"783","num_nodes":"103","size_leaf_vector":"1"}},{"base_weights":[3.7211273E-3,-7.8097975E-1,5.771649E-1,-1.0315548E0,8.899907E-1,-4.2959574E-1,1.0034574E0,-2.6602826E-1,-1.2821875E0,1.3900284E0,-4.7454756E-1,8.191956E-1,-1.0839567E0,1.1811779E0,-3.8833505E-1,-1.2602626E0,5.9416187E-1,1.1645187E0,-1.3369589E0,1.4610335E0,-6.633624E-2,-1.4922146E0,6.34501E-1,1.1004463E0,-1.0798624E0,6.602926E-1,-1.3670578E0,-8.0917114E-1,1.2575223E0,6.634371E-1,-1.1592287E0,-1.4422615E0,5.7610524E-1,1.1662967E0,-8.128595E-1,7.662203E-2,-5.341133E-2,-1.36266E0,6.8003285E-1,-1.6905598E-1,1.4862474E0,3.0551655E-2,-1.5971638E0,1.297131E0,-1.0870832E0,-1.0060215E0,1.2588384E0,-1.3904654E0,6.378323E-2,1.2576813E0,-6.214475E-1,9.971719E-1,-1.4023322E0,-1.4573073E0,1.2577301E0,7.2404325E-2,1.3171316E0,1.1180286E0,-1.4377111E0,-1.3988353E0,6.2062275E-1,-7.384235E-2,9.78805E-3,-5.3547084E-2,6.929123E-2,-2.6605893E-2,6.869601E-2,3.4585726E-2,-6.644273E-2,-7.099695E-2,-3.242983E-2,-5.970939E-2,8.025799E-2,4.3013528E-2,-5.1433433E-2,7.543824E-2,1.5268234E-2,8.052933E-3,-8.321792E-2,-3.6627706E-2,7.185645E-2,4.5015298E-2,-7.3687054E-2,-7.503986E-2,3.717684E-2,6.697541E-2,-4.110835E-2,-7.786902E-2,4.94823E-2,6.9757745E-2,-4.1026544E-2,-6.7061976E-2,1.0833289E-2,-2.6568646E-2,6.98851E-2,-7.203011E-2,1.0225956E-2,-7.919039E-2,3.993788E-2,-1.3418041E-2,7.042741E-2,-4.8440497E-2,5.4740425E-2,6.69887E-2,-4.798582E-2,7.27159E-2,-1.0113585E-3,2.6271233E-2,-8.150618E-2,5.5294868E-2,-7.2819225E-2,7.074646E-2,-5.734086E-2],"categories":[],"categories_nodes":[],"categories_segments":[],"categories_sizes":[],"default_left":[0,0,0,0,0,0,0,0,0,0,0,0,0,0,0,0,0,0,0,0,0,0,0,0,0,0,0,0,0,0,0,0,0,0,0,0,0,0,0,0,0,0,0,0,0,0,0,0,0,0,0,0,0,0,0,0,0,0,0,0,0,0,0,0,0,0,0,0,0,0,0,0,0,0,0,0,0,0,0,0,0,0,0,0,0,0,0,0,0,0,0,0,0,0,0,0,0,0,0,0,0,0,0,0,0,0,0,0,0,0,0,0,0],"id":8,"left_children":[1,3,5,7,9,11,13,15,17,19,21,23,25,27,29,31,33,35,37,39,-1,41,43,45,47,49,51,53,55,57,59,61,63,65,67,-1,-1,69,71,73,75,-1,77,79,81,83,85,87,-1,89,91,93,95,97,99,101,103,105,107,109,111,-1,-1,-1,-1,-1,-1,-1,-1,-1,-1,-1,-1,-1,-1,-1,-1,-1,-1,-1,-1,-1,-1,-1,-1,-1,-1,-1,-1,-1,-1,-1,-1,-1,-1,-1,-1,-1,-1,-1,-1,-1,-1,-1,-1,-1,-1,-1,-1,-1,-1,-1,-1],"loss_changes":[1.9922522E3,7.836288E2,1.0982756E3,3.116444E2,1.6735579E2,6.2327295E2,4.4504382E2,3.4482907E2,1.6568323E2,3.6476624E1,7.573444E1,1.4136343E2,2.4789984E2,2.4324707E2,1.6639734E2,6.3310028E1,1.7513734E2,2.410505E1,6.304956E1,7.442322E0,0E0,8.669319E0,3.8382225E1,7.770065E1,2.6912045E1,5.4780388E1,3.7315308E1,8.153548E1,1.0838696E2,8.473955E1,5.1294144E1,9.940918E0,2.4918125E1,5.5121277E1,4.993904E1,0E0,0E0,4.7490723E1,2.9217161E1,4.03747E0,4.123352E0,0E0,4.2227554E0,7.832142E0,8.666553E0,1.54655E1,3.6944E1,1.3791161E1,0E0,1.4982201E1,1.4219364E1,4.9766607E0,2.6414978E1,1.4323563E1,3.770502E0,8.0473564E1,7.66582E1,2.763424E1,6.8693695E0,1.6676743E1,2.2290686E1,0E0,0E0,0E0,0E0,0E0,0E0,0E0,0E0,0E0,0E0,0E0,0E0,0E0,0E0,0E0,0E0,0E0,0E0,0E0,0E0,0E0,0E0,0E0,0E0,0E0,0E0,0E0,0E0,0E0,0E0,0E0,0E0,0E0,0E0,0E0,0E0,0E0,0E0,0E0,0E0,0E0,0E0,0E0,0E0,0E0,0E0,0E0,0E0,0E0,0E0,0E0,0E0],"parents":[2147483647,0,0,1,1,2,2,3,3,4,4,5,5,6,6,7,7,8,8,9,9,10,10,11,11,12,12,13,13,14,14,15,15,16,16,17,17,18,18,19,19,21,21,22,22,23,23,24,24,25,25,26,26,27,27,28,28,29,29,30,30,31,31,32,32,33,33,34,34,37,37,38,38,39,39,40,40,42,42,43,43,44,44,45,45,46,46,47,47,49,49,50,50,51,51,52,52,53,53,54,54,55,55,56,56,57,57,58,58,59,59,60,60],"right_children":[2,4,6,8,10,12,14,16,18,20,22,24,26,28,30,32,34,36,38,40,-1,42,44,46,48,50,52,54,56,58,60,62,64,66,68,-1,-1,70,72,74,76,-1,78,80,82,84,86,88,-1,90,92,94,96,98,100,102,104,106,108,110,112,-1,-1,-1,-1,-1,-1,-1,-1,-1,-1,-1,-1,-1,-1,-1,-1,-1,-1,-1,-1,-1,-1,-1,-1,-1,-1,-1,-1,-1,-1,-1,-1,-1,-1,-1,-1,-1,-1,-1,-1,-1,-1,-1,-1,-1,-1,-1,-1,-1,-1,-1,-1],"split_conditions":[-1.4908859E-1,7.6749015E-1,-3.2638866E-1,-1.8146235E-1,-4.850158E-2,-2.8852466E-1,9.394987E-1,-7.4318445E-1,-1.3538452E0,1.1513742E0,1.8257678E-1,6.159266E-1,-3.9334875E-2,-1.509728E0,-3.7216082E-2,2.2028746E-1,3.817939E-1,1.0600363E0,1.4087492E0,-1.3136644E0,-6.633624E-2,-8.40723E-1,5.874826E-1,-9.949526E-1,1.1531011E0,1.7862406E-1,-1.8809775E0,1.1267859E0,-9.925173E-1,1.560019E0,5.439638E-1,7.957802E-1,-1.8651748E-2,-1.267723E0,-1.3441606E-3,7.662203E-2,-5.341133E-2,1.2799666E0,-3.006903E-1,6.150935E-1,1.6466885E0,3.0551655E-2,-6.855733E-1,-8.603525E-1,-1.2936172E-1,-3.172468E-1,7.00672E-1,1.0591292E0,6.378323E-2,9.727494E-1,-5.2708024E-1,4.350944E-1,1.1055421E0,2.329864E-1,-2.707585E-1,-1.6578569E-1,1.8066033E0,1.816283E-1,-5.661981E-1,-1.78139E0,5.194969E-1,-7.384235E-2,9.78805E-3,-5.3547084E-2,6.929123E-2,-2.6605893E-2,6.869601E-2,3.4585726E-2,-6.644273E-2,-7.099695E-2,-3.242983E-2,-5.970939E-2,8.025799E-2,4.3013528E-2,-5.1433433E-2,7.543824E-2,1.5268234E-2,8.052933E-3,-8.321792E-2,-3.6627706E-2,7.185645E-2,4.5015298E-2,-7.3687054E-2,-7.503986E-2,3.717684E-2,6.697541E-2,-4.110835E-2,-7.786902E-2,4.94823E-2,6.9757745E-2,-4.1026544E-2,-6.7061976E-2,1.0833289E-2,-2.6568646E-2,6.98851E-2,-7.203011E-2,1.0225956E-2,-7.919039E-2,3.993788E-2,-1.3418041E-2,7.042741E-2,-4.8440497E-2,5.4740425E-2,6.69887E-2,-4.798582E-2,7.27159E-2,-1.0113585E-3,2.6271233E-2,-8.150618E-2,5.5294868E-2,-7.2819225E-2,7.074646E-2,-5.734086E-2],"split_indices":[37,467,750,688,566,413,482,738,711,637,487,688,711,652,304,512,59,776,765,280,0,523,672,45,165,659,770,289,458,598,233,22,459,682,259,0,0,0,738,60,299,0,77,88,520,671,325,277,0,242,468,464,505,450,446,664,57,390,529,430,566,0,0,0,0,0,0,0,0,0,0,0,0,0,0,0,0,0,0,0,0,0,0,0,0,0,0,0,0,0,0,0,0,0,0,0,0,0,0,0,0,0,0,0,0,0,0,0,0,0,0,0,0],"split_type":[0,0,0,0,0,0,0,0,0,0,0,0,0,0,0,0,0,0,0,0,0,0,0,0,0,0,0,0,0,0,0,0,0,0,0,0,0,0,0,0,0,0,0,0,0,0,0,0,0,0,0,0,0,0,0,0,0,0,0,0,0,0,0,0,0,0,0,0,0,0,0,0,0,0,0,0,0,0,0,0,0,0,0,0,0,0,0,0,0,0,0,0,0,0,0,0,0,0,0,0,0,0,0,0,0,0,0,0,0,0,0,0,0],"sum_hessian":[4.4254043E3,1.8683673E3,2.557037E3,1.6250596E3,2.4330771E2,7.6064355E2,1.7963936E3,4.013246E2,1.223735E3,1.7804434E2,6.526337E1,2.6144553E2,4.9919803E2,1.5931171E3,2.0327647E2,1.8594199E2,2.153826E2,2.6350845E1,1.1973842E3,1.7395993E2,4.084408E0,3.3853645E1,3.140972E1,2.2808643E2,3.3359097E1,6.952242E1,4.2967563E2,5.84958E1,1.5346212E3,8.603442E1,1.1724206E2,1.693706E2,1.6571379E1,1.5324138E2,6.2141216E1,2.2892216E1,3.4586303E0,1.182639E3,1.4745098E1,2.5629048E0,1.7139702E2,1.3797832E0,3.247386E1,2.2858236E1,8.551482E0,1.5576886E1,2.1250954E2,2.9834747E1,3.5243495E0,4.7433548E1,2.2088879E1,5.915659E0,4.2375995E2,4.4756153E1,1.3739646E1,7.3598206E1,1.4610231E3,7.111607E1,1.491834E1,1.0352008E2,1.3721977E1,1.659648E2,3.4058075E0,5.35539E0,1.1215988E1,1.6522226E1,1.3671915E2,1.5782108E1,4.6359108E1,1.0939027E3,8.873635E1,4.776837E0,9.968261E0,1.1659704E0,1.3969343E0,1.679175E2,3.479534E0,1.1439579E0,3.1329905E1,1.2018125E0,2.1656424E1,1.1764086E0,7.375074E0,1.22537155E1,3.3231707E0,2.049221E2,7.587436E0,2.8202595E1,1.632153E0,4.4798786E1,2.634761E0,1.1560303E1,1.0528575E1,1.1604297E0,4.755229E0,4.140032E2,9.756747E0,4.2662018E1,2.094133E0,1.1656225E0,1.2574024E1,3.6489647E1,3.710856E1,1.4470443E3,1.3978765E1,5.4682777E1,1.64333E1,1.1771772E0,1.3741162E1,1.9159325E0,1.0160414E2,9.604886E0,4.117091E0],"tree_param":{"num_deleted":"0","num_feature":"783","num_nodes":"113","size_leaf_vector":"1"}},{"base_weights":[5.595787E-3,-1.1144974E0,3.8169125E-1,-1.2533654E0,4.523541E-1,-5.6480324E-1,8.1575084E-1,-1.3072673E0,2.0014876E-1,1.2676435E0,-1.1768328E0,3.9395374E-1,-1.1229515E0,9.5320916E-1,-6.9758105E-1,6.205371E-1,-1.3346665E0,-8.601142E-1,1.089337E0,1.4441402E0,-1.0067812E0,7.094162E-1,-1.4147676E0,1.09883E0,-9.1834044E-1,-1.3006032E0,-7.354606E-2,1.0547237E0,-5.5785424E-1,5.4612756E-1,-1.1926769E0,-9.875705E-1,1.360342E0,-4.5027144E-2,-1.3651477E0,-7.08697E-2,2.0095874E-1,-4.1151103E-2,1.3735116E0,2.0629175E-3,7.360979E-2,-5.9327196E-2,-1.0247095E-2,-9.4410265E-3,5.6136783E-2,-7.3287435E-2,-6.1443658E-3,1.3302507E0,-1.4812437E-1,8.789717E-1,-1.2433877E0,-1.339204E0,1.1213435E0,1.0345504E0,-8.0887103E-1,1.1374085E0,-5.813632E-1,-1.16162E0,1.0128031E0,-7.678467E-1,9.2172164E-1,-1.3663352E0,4.144701E-1,-6.1876412E-2,-4.6742456E-3,5.9264405E-3,7.506435E-2,-5.0589632E-2,5.6457866E-2,-6.901352E-2,4.8099127E-2,6.2003683E-2,-4.8537746E-2,-1.4420798E-3,7.460523E-2,6.933327E-2,-2.8385622E-2,-5.862064E-2,4.628205E-2,6.2738575E-2,-5.5051E-2,-6.7954265E-2,3.77109E-2,-6.82716E-2,3.512404E-2,-8.858983E-3,6.599788E-2,-7.6951287E-3,6.996443E-2,2.030134E-2,-6.36702E-2,6.707222E-2,3.0346824E-2,-6.1617292E-2,5.538372E-2,6.67766E-2,-7.4361786E-2,6.6193454E-2,-5.1379245E-2,4.356056E-2,-6.6826425E-2,-1.39788315E-2,6.56298E-2,-7.155059E-2,2.9678835E-2,4.9375694E-2,-4.7579654E-2],"categories":[],"categories_nodes":[],"categories_segments":[],"categories_sizes":[],"default_left":[0,0,0,0,0,0,0,0,0,0,0,0,0,0,0,0,0,0,0,0,0,0,0,0,0,0,0,0,0,0,0,0,0,0,0,0,0,0,0,0,0,0,0,0,0,0,0,0,0,0,0,0,0,0,0,0,0,0,0,0,0,0,0,0,0,0,0,0,0,0,0,0,0,0,0,0,0,0,0,0,0,0,0,0,0,0,0,0,0,0,0,0,0,0,0,0,0,0,0,0,0,0,0,0,0,0,0],"id":9,"left_children":[1,3,5,7,9,11,13,15,17,19,21,23,25,27,29,31,33,35,37,39,41,43,45,47,49,51,53,55,57,59,61,63,65,67,69,-1,71,-1,73,-1,-1,-1,-1,-1,-1,-1,-1,75,77,79,81,83,85,87,89,91,93,95,97,99,101,103,105,-1,-1,-1,-1,-1,-1,-1,-1,-1,-1,-1,-1,-1,-1,-1,-1,-1,-1,-1,-1,-1,-1,-1,-1,-1,-1,-1,-1,-1,-1,-1,-1,-1,-1,-1,-1,-1,-1,-1,-1,-1,-1,-1,-1],"loss_changes":[1.8276666E3,2.3786108E2,1.3348376E3,7.8769775E1,1.2040051E2,5.4722705E2,4.6396313E2,5.1871582E1,3.5535397E1,2.559822E1,1.4636684E1,3.494649E2,1.203512E2,3.13844E2,1.1520071E2,1.8266314E1,3.7406128E1,1.0513296E1,1.2217094E1,2.152214E0,4.6606922E-1,1.7224805E0,1.6184006E0,7.104886E1,7.831423E1,5.3152344E1,7.791613E1,2.5957764E2,1.2370842E2,2.7187662E1,3.779071E1,1.0154581E0,1.6008968E0,2.7298532E1,3.4095093E1,0E0,9.522483E0,0E0,3.0592308E0,0E0,0E0,0E0,0E0,0E0,0E0,0E0,0E0,2.2971985E1,4.434638E1,1.6880562E1,2.6991348E1,3.0104248E1,2.609561E0,1.6762371E1,3.2925274E1,1.964126E2,1.0333072E2,7.825541E1,2.4470821E1,1.2790665E1,2.0173779E1,1.6136993E1,1.1721884E1,0E0,0E0,0E0,0E0,0E0,0E0,0E0,0E0,0E0,0E0,0E0,0E0,0E0,0E0,0E0,0E0,0E0,0E0,0E0,0E0,0E0,0E0,0E0,0E0,0E0,0E0,0E0,0E0,0E0,0E0,0E0,0E0,0E0,0E0,0E0,0E0,0E0,0E0,0E0,0E0,0E0,0E0,0E0,0E0],"parents":[2147483647,0,0,1,1,2,2,3,3,4,4,5,5,6,6,7,7,8,8,9,9,10,10,11,11,12,12,13,13,14,14,15,15,16,16,17,17,18,18,19,19,20,20,21,21,22,22,23,23,24,24,25,25,26,26,27,27,28,28,29,29,30,30,31,31,32,32,33,33,34,34,36,36,38,38,47,47,48,48,49,49,50,50,51,51,52,52,53,53,54,54,55,55,56,56,57,57,58,58,59,59,60,60,61,61,62,62],"right_children":[2,4,6,8,10,12,14,16,18,20,22,24,26,28,30,32,34,36,38,40,42,44,46,48,50,52,54,56,58,60,62,64,66,68,70,-1,72,-1,74,-1,-1,-1,-1,-1,-1,-1,-1,76,78,80,82,84,86,88,90,92,94,96,98,100,102,104,106,-1,-1,-1,-1,-1,-1,-1,-1,-1,-1,-1,-1,-1,-1,-1,-1,-1,-1,-1,-1,-1,-1,-1,-1,-1,-1,-1,-1,-1,-1,-1,-1,-1,-1,-1,-1,-1,-1,-1,-1,-1,-1,-1,-1],"split_conditions":[-6.7667854E-1,1.6683334E0,-4.3882445E-1,8.290321E-1,3.3550033E-1,2.7340478E-3,1.0359827E0,-1.8263414E0,-3.9260432E-1,7.7828604E-1,2.616081E-1,5.761071E-1,5.3079146E-1,1.4350702E0,-2.9600304E-2,-7.573733E-1,-1.1478585E0,-9.334151E-2,-1.1095657E0,-7.298554E-1,-1.0545164E0,-9.744059E-1,-2.3874072E-2,4.1109037E-1,-3.3516001E-3,1.5391077E0,-4.8282064E-2,1.2311815E0,3.579435E-1,-4.3192203E-3,5.380508E-1,-2.536932E-1,-7.639849E-1,-3.4212995E-1,1.2439655E0,-7.08697E-2,1.2590525E-1,-4.1151103E-2,-1.2150904E0,2.0629175E-3,7.360979E-2,-5.9327196E-2,-1.0247095E-2,-9.4410265E-3,5.6136783E-2,-7.3287435E-2,-6.1443658E-3,1.0614593E0,-2.112949E-1,1.0312139E0,1.1011758E0,1.6198329E0,-6.595517E-1,-5.734365E-1,-5.8866036E-1,1.9215123E-1,2.9568616E-1,-3.7036216E-1,6.9009143E-1,-9.115566E-1,-7.114882E-1,1.5032218E0,1.0824171E0,-6.1876412E-2,-4.6742456E-3,5.9264405E-3,7.506435E-2,-5.0589632E-2,5.6457866E-2,-6.901352E-2,4.8099127E-2,6.2003683E-2,-4.8537746E-2,-1.4420798E-3,7.460523E-2,6.933327E-2,-2.8385622E-2,-5.862064E-2,4.628205E-2,6.2738575E-2,-5.5051E-2,-6.7954265E-2,3.77109E-2,-6.82716E-2,3.512404E-2,-8.858983E-3,6.599788E-2,-7.6951287E-3,6.996443E-2,2.030134E-2,-6.36702E-2,6.707222E-2,3.0346824E-2,-6.1617292E-2,5.538372E-2,6.67766E-2,-7.4361786E-2,6.6193454E-2,-5.1379245E-2,4.356056E-2,-6.6826425E-2,-1.39788315E-2,6.56298E-2,-7.155059E-2,2.9678835E-2,4.9375694E-2,-4.7579654E-2],"split_indices":[37,385,233,467,720,18,166,574,260,15,116,659,459,255,552,509,435,341,211,749,25,224,241,222,704,173,59,688,220,403,3,512,358,467,38,0,688,0,648,0,0,0,0,0,0,0,0,617,506,381,91,271,220,379,132,510,222,212,617,48,762,292,612,0,0,0,0,0,0,0,0,0,0,0,0,0,0,0,0,0,0,0,0,0,0,0,0,0,0,0,0,0,0,0,0,0,0,0,0,0,0,0,0,0,0,0,0],"split_type":[0,0,0,0,0,0,0,0,0,0,0,0,0,0,0,0,0,0,0,0,0,0,0,0,0,0,0,0,0,0,0,0,0,0,0,0,0,0,0,0,0,0,0,0,0,0,0,0,0,0,0,0,0,0,0,0,0,0,0,0,0,0,0,0,0,0,0,0,0,0,0,0,0,0,0,0,0,0,0,0,0,0,0,0,0,0,0,0,0,0,0,0,0,0,0,0,0,0,0,0,0,0,0,0,0,0,0],"sum_hessian":[4.3365415E3,1.0895786E3,3.246963E3,1.0010564E3,8.8522255E1,1.0207819E3,2.226181E3,9.6535785E2,3.569858E1,5.9145935E1,2.9376316E1,3.7570697E2,6.4507495E2,2.0411501E3,1.8503078E2,1.322466E1,9.521332E2,1.6297834E1,1.9400747E1,5.522546E1,3.9204762E0,3.068551E0,2.6307764E1,2.4452646E2,1.311805E2,5.514772E2,9.359777E1,1.9129392E3,1.2821095E2,5.2655106E1,1.3237567E2,4.061439E0,9.163221E0,2.204172E1,9.3009143E2,1.04655E1,5.832334E0,2.2646375E0,1.713611E1,1.1312121E0,5.409425E1,2.8105965E0,1.1098799E0,1.1381829E0,1.9303683E0,2.5179527E1,1.1282363E0,2.0619261E2,3.833384E1,1.9829784E1,1.11350716E2,5.432657E2,8.211494E0,3.7173027E1,5.6424747E1,1.8212039E3,9.173535E1,9.27991E1,3.5411854E1,1.1473165E1,4.1181942E1,1.1960206E2,1.2773608E1,2.8738701E0,1.1875691E0,1.1216588E0,8.041562E0,1.216443E1,9.87729E0,9.244906E2,5.60083E0,3.0601492E0,2.7721848E0,1.395166E0,1.5740944E1,2.0050232E2,5.6902986E0,1.9571901E1,1.8761938E1,1.697435E1,2.8554342E0,1.0555671E2,5.7940087E0,5.3670233E2,6.5633764E0,1.1036756E0,7.107819E0,8.865138E0,2.8307888E1,1.5642003E1,4.0782745E1,1.3141951E3,5.0700876E2,6.641017E1,2.5325176E1,1.034691E1,8.2452194E1,3.1032051E1,4.379802E0,2.8182898E0,8.654875E0,1.0179964E1,3.1001978E1,1.1604254E2,3.5595207E0,9.193977E0,3.579631E0],"tree_param":{"num_deleted":"0","num_feature":"783","num_nodes":"107","size_leaf_vector":"1"}},{"base_weights":[1.1667446E-3,-7.382354E-1,5.4644E-1,-1.0049812E0,6.04824E-1,1.0389581E0,-1.966832E-1,-2.9003802E-1,-1.2228767E0,1.2422569E0,-7.6968056E-1,1.2454821E0,-3.6850828E-1,-9.973297E-1,6.206265E-1,-9.8869073E-1,6.0441977E-1,1.0781288E0,-1.2743213E0,1.3441296E0,-6.5568274E-1,1.2819277E0,-1.1822723E0,1.2859495E0,-8.869502E-1,-9.869358E-1,1.034531E0,2.2558939E-2,-1.2365209E0,-4.784629E-1,9.3466187E-1,-1.4203086E0,5.517914E-1,-7.0652324E-1,9.5986325E-1,7.323636E-2,-5.825001E-2,-1.3138508E0,3.8027164E-2,1.3917944E0,-8.1640345E-1,8.1155E-1,-7.0022404E-2,7.169091E-2,-1.9795647E-2,-1.4001623E0,1.0848762E0,-9.07887E-1,1.3123312E0,-1.5767151E0,8.6214405E-1,6.778461E-1,-1.3364507E0,-8.017748E-1,1.265676E0,-9.2238945E-1,9.9799407E-1,-1.6585402E-1,-1.3761773E0,-1.0363497E0,9.4689834E-1,1.0937473E0,-7.481778E-1,-7.329881E-2,3.914533E-2,6.905222E-2,-4.252496E-2,-7.363824E-2,9.249173E-3,-1.8231103E-2,6.23253E-2,-6.826519E-2,-2.984178E-2,-6.0359318E-2,5.5310156E-2,7.107056E-2,-1.4641776E-2,-5.7701644E-2,8.671439E-3,1.8564434E-3,5.3421814E-2,2.9322404E-2,-7.340645E-2,-9.552717E-3,6.667902E-2,4.1413467E-2,-7.35327E-2,-2.5715044E-2,6.640053E-2,-8.277487E-2,-1.0908063E-2,6.208663E-2,-3.310705E-2,-3.4021746E-2,6.3312545E-2,9.369945E-3,-7.303264E-2,-7.265871E-2,4.6493847E-2,6.8136685E-2,-5.3335816E-2,5.0407242E-2,-6.3785985E-2,-6.8138056E-2,6.0575217E-2,4.6377007E-2,-6.0827184E-2,-7.1041375E-2,2.1449236E-2,3.7968095E-2,-6.654661E-2,-3.9132718E-2,5.9113182E-2,-5.6762572E-2,6.1444826E-2,-6.742241E-2,5.51394E-2],"categories":[],"categories_nodes":[],"categories_segments":[],"categories_sizes":[],"default_left":[0,0,0,0,0,0,0,0,0,0,0,0,0,0,0,0,0,0,0,0,0,0,0,0,0,0,0,0,0,0,0,0,0,0,0,0,0,0,0,0,0,0,0,0,0,0,0,0,0,0,0,0,0,0,0,0,0,0,0,0,0,0,0,0,0,0,0,0,0,0,0,0,0,0,0,0,0,0,0,0,0,0,0,0,0,0,0,0,0,0,0,0,0,0,0,0,0,0,0,0,0,0,0,0,0,0,0,0,0,0,0,0,0,0,0,0,0],"id":10,"left_children":[1,3,5,7,9,11,13,15,17,19,21,23,25,27,29,31,33,35,37,39,41,43,45,47,49,51,53,55,57,59,61,63,65,67,69,-1,-1,71,73,75,77,79,-1,-1,-1,81,83,85,87,89,91,93,95,97,99,101,103,105,107,109,111,113,115,-1,-1,-1,-1,-1,-1,-1,-1,-1,-1,-1,-1,-1,-1,-1,-1,-1,-1,-1,-1,-1,-1,-1,-1,-1,-1,-1,-1,-1,-1,-1,-1,-1,-1,-1,-1,-1,-1,-1,-1,-1,-1,-1,-1,-1,-1,-1,-1,-1,-1,-1,-1,-1,-1],"loss_changes":[1.7166263E3,6.4804047E2,8.9711847E2,2.345824E2,2.638686E2,4.28901E2,6.4035205E2,2.2155472E2,1.3815845E2,4.0592438E1,8.2514084E1,1.1207788E2,1.6533894E2,1.2059433E2,1.6763704E2,1.330308E2,7.322046E1,2.4089735E1,5.8707397E1,2.1243591E1,1.3303959E1,4.773016E0,4.1130775E1,7.423462E1,3.0958656E1,7.7684525E1,2.5813118E1,8.836773E1,5.9635254E1,8.710602E1,1.0177008E2,1.6808197E1,5.263246E1,2.3350039E1,4.7113342E1,0E0,0E0,3.968164E1,4.6604935E1,9.9661255E0,1.8192816E0,8.320992E-1,0E0,0E0,0E0,1.0797775E1,2.6646929E0,1.644769E1,3.6410645E1,1.5598755E0,5.2110367E0,1.9690784E1,2.0978012E1,9.409833E0,1.3288635E1,3.4511227E1,2.5423473E1,5.5505707E1,2.9144104E1,4.2439583E1,1.3540314E1,1.0530261E2,3.833316E1,0E0,0E0,0E0,0E0,0E0,0E0,0E0,0E0,0E0,0E0,0E0,0E0,0E0,0E0,0E0,0E0,0E0,0E0,0E0,0E0,0E0,0E0,0E0,0E0,0E0,0E0,0E0,0E0,0E0,0E0,0E0,0E0,0E0,0E0,0E0,0E0,0E0,0E0,0E0,0E0,0E0,0E0,0E0,0E0,0E0,0E0,0E0,0E0,0E0,0E0,0E0,0E0,0E0,0E0],"parents":[2147483647,0,0,1,1,2,2,3,3,4,4,5,5,6,6,7,7,8,8,9,9,10,10,11,11,12,12,13,13,14,14,15,15,16,16,17,17,18,18,19,19,20,20,21,21,22,22,23,23,24,24,25,25,26,26,27,27,28,28,29,29,30,30,31,31,32,32,33,33,34,34,37,37,38,38,39,39,40,40,41,41,45,45,46,46,47,47,48,48,49,49,50,50,51,51,52,52,53,53,54,54,55,55,56,56,57,57,58,58,59,59,60,60,61,61,62,62],"right_children":[2,4,6,8,10,12,14,16,18,20,22,24,26,28,30,32,34,36,38,40,42,44,46,48,50,52,54,56,58,60,62,64,66,68,70,-1,-1,72,74,76,78,80,-1,-1,-1,82,84,86,88,90,92,94,96,98,100,102,104,106,108,110,112,114,116,-1,-1,-1,-1,-1,-1,-1,-1,-1,-1,-1,-1,-1,-1,-1,-1,-1,-1,-1,-1,-1,-1,-1,-1,-1,-1,-1,-1,-1,-1,-1,-1,-1,-1,-1,-1,-1,-1,-1,-1,-1,-1,-1,-1,-1,-1,-1,-1,-1,-1,-1,-1,-1,-1],"split_conditions":[-1.3711393E-1,6.071081E-1,1.3327332E-1,-1.8146235E-1,6.0429633E-2,5.2939683E-1,-2.2284825E-1,-3.5874283E-1,-1.3538452E0,9.676175E-1,-7.776215E-1,1.6535895E0,7.033672E-1,-5.1857936E-1,-2.82012E-1,6.2284693E-2,-1.1186804E0,1.0600363E0,1.305075E0,1.2617514E0,-5.400894E-1,1.013866E0,1.2169386E0,-1.9768997E0,1.8750396E-1,-3.827771E-1,-7.8970754E-1,-4.8038074E-1,-5.8075535E-1,6.814538E-1,5.8058345E-1,1.1501042E0,-2.319287E-1,-1.5200786E-1,-3.2952836E-1,7.323636E-2,-5.825001E-2,1.2799666E0,3.4648997E-1,8.4768647E-1,-5.7087E-1,5.525602E-1,-7.0022404E-2,7.169091E-2,-1.9795647E-2,-1.0462642E0,-1.3756311E0,-2.118984E-1,-1.8186669E0,1.9663924E-1,5.507567E-1,-1.3928181E-1,-4.470088E-1,3.310343E-1,1.4652582E0,-1.0639637E0,-1.4901466E0,9.1604203E-1,1.2856306E0,-4.886522E-1,-4.2393148E-1,-1.215164E0,2.5985627E-3,-7.329881E-2,3.914533E-2,6.905222E-2,-4.252496E-2,-7.363824E-2,9.249173E-3,-1.8231103E-2,6.23253E-2,-6.826519E-2,-2.984178E-2,-6.0359318E-2,5.5310156E-2,7.107056E-2,-1.4641776E-2,-5.7701644E-2,8.671439E-3,1.8564434E-3,5.3421814E-2,2.9322404E-2,-7.340645E-2,-9.552717E-3,6.667902E-2,4.1413467E-2,-7.35327E-2,-2.5715044E-2,6.640053E-2,-8.277487E-2,-1.0908063E-2,6.208663E-2,-3.310705E-2,-3.4021746E-2,6.3312545E-2,9.369945E-3,-7.303264E-2,-7.265871E-2,4.6493847E-2,6.8136685E-2,-5.3335816E-2,5.0407242E-2,-6.3785985E-2,-6.8138056E-2,6.0575217E-2,4.6377007E-2,-6.0827184E-2,-7.1041375E-2,2.1449236E-2,3.7968095E-2,-6.654661E-2,-3.9132718E-2,5.9113182E-2,-5.6762572E-2,6.1444826E-2,-6.742241E-2,5.51394E-2],"split_indices":[37,467,18,688,566,593,233,134,711,149,711,531,37,688,375,342,648,776,631,259,523,742,144,45,228,444,50,30,304,224,256,283,705,621,487,0,0,0,280,688,280,601,0,0,0,523,258,566,341,500,169,488,124,366,604,537,288,481,605,711,478,341,161,0,0,0,0,0,0,0,0,0,0,0,0,0,0,0,0,0,0,0,0,0,0,0,0,0,0,0,0,0,0,0,0,0,0,0,0,0,0,0,0,0,0,0,0,0,0,0,0,0,0,0,0,0,0],"split_type":[0,0,0,0,0,0,0,0,0,0,0,0,0,0,0,0,0,0,0,0,0,0,0,0,0,0,0,0,0,0,0,0,0,0,0,0,0,0,0,0,0,0,0,0,0,0,0,0,0,0,0,0,0,0,0,0,0,0,0,0,0,0,0,0,0,0,0,0,0,0,0,0,0,0,0,0,0,0,0,0,0,0,0,0,0,0,0,0,0,0,0,0,0,0,0,0,0,0,0,0,0,0,0,0,0,0,0,0,0,0,0,0,0,0,0,0,0],"sum_hessian":[4.255756E3,1.8061815E3,2.4495745E3,1.5071061E3,2.9907547E2,1.4729517E3,9.766228E2,3.5257928E2,1.1545269E3,2.0438649E2,9.468897E1,1.2845751E3,1.883766E2,4.9322922E2,4.833936E2,1.9789781E2,1.5468149E2,2.481133E1,1.1297155E3,1.9425174E2,1.0134745E1,1.5501404E1,7.918757E1,1.2610411E3,2.3533928E1,1.3095238E2,5.742423E1,9.3872284E1,3.9935693E2,1.07307045E2,3.7608655E2,1.5464642E2,4.3251385E1,3.2783176E1,1.21898315E2,2.1459797E1,3.3515332E0,1.096681E3,3.303451E1,1.9040688E2,3.8448727E0,3.3821104E0,6.752634E0,1.43479595E1,1.1534437E0,7.259322E1,6.5943413E0,1.4587295E1,1.2464539E3,1.6948677E1,6.585251E0,2.2559473E1,1.083929E2,6.144134E0,5.1280094E1,4.7708893E1,4.6163395E1,4.633328E1,3.5302365E2,7.7317764E1,2.9989273E1,3.4392413E2,3.2162422E1,1.5183386E2,2.8125517E0,2.7188469E1,1.6062916E1,1.7279564E1,1.5503613E1,2.1639057E1,1.0025926E2,1.0224086E3,7.427234E1,1.5193144E1,1.7841368E1,1.8727078E2,3.1360798E0,2.7432647E0,1.1016082E0,1.1275326E0,2.2545779E0,2.1490738E0,7.044415E1,1.1135061E0,5.480835E0,3.4554203E0,1.1131874E1,1.0337522E1,1.2361163E3,1.5813106E1,1.1355718E0,5.4207125E0,1.1645381E0,6.7715464E0,1.5787927E1,8.130469E0,1.0026243E2,4.5815125E0,1.5626216E0,4.9630558E1,1.649537E0,7.0941935E0,4.06147E1,3.3823652E0,4.278103E1,2.276266E1,2.3570621E1,3.4471024E2,8.313422E0,1.0673941E1,6.664383E1,3.313698E0,2.6675575E1,1.9237791E1,3.2468634E2,2.4491339E1,7.671082E0],"tree_param":{"num_deleted":"0","num_feature":"783","num_nodes":"117","size_leaf_vector":"1"}},{"base_weights":[-1.5465831E-3,-7.655251E-1,4.8346525E-1,-9.8713416E-1,8.0146253E-1,9.902796E-1,-2.3512477E-1,-4.283632E-1,-1.2495869E0,-8.935595E-1,1.193201E0,1.1960541E0,-4.1691822E-1,-9.3336916E-1,6.262058E-1,4.7965333E-1,-1.1277921E0,1.1269672E0,-1.2872957E0,-1.3362408E0,6.694573E-1,-7.531825E-1,1.3408134E0,-7.281048E-1,1.250148E0,1.0012416E0,-9.628744E-1,-1.0655931E-1,-1.2493716E0,-2.4694605E-1,1.0176272E0,9.209094E-1,-6.3770086E-1,-1.2999629E0,3.913555E-1,7.075744E-2,-4.5294542E-2,-1.3034502E0,1.1238413E0,3.5195198E-2,-1.4688413E0,-4.7326144E-2,6.1549403E-2,4.7684398E-2,-6.71619E-2,-5.1537704E-2,1.381727E0,-1.6626652E0,1.210869E-1,-7.2066647E-1,1.2839705E0,-1.1682305E0,1.2880249E0,9.866367E-1,-1.2252053E0,-9.6595824E-1,8.252024E-1,-1.3037801E0,8.3383435E-1,-1.0885966E0,5.7412016E-1,1.1333375E0,-7.343444E-1,-2.1780998E-2,5.977043E-2,-5.8437377E-2,4.608455E-2,-6.642807E-2,6.0678758E-2,-4.369498E-2,4.999737E-2,-6.6847794E-2,-8.0495635E-3,-3.8028058E-2,8.049198E-2,-7.6879434E-2,7.897083E-3,7.02597E-2,-3.910285E-3,-8.58265E-2,-2.3820445E-2,4.43151E-2,-5.5133294E-2,6.1582763E-2,-7.270155E-2,6.6366285E-2,2.0391557E-2,-6.76259E-2,-6.380943E-3,-2.302138E-2,6.8840764E-2,-4.56278E-2,6.783585E-2,-6.5447696E-2,5.8368202E-2,-6.1466422E-2,5.0169032E-2,6.3431315E-2,-2.7974641E-2,-6.8738215E-2,-2.5647966E-2,7.5312935E-2,-4.731266E-2,-7.227541E-2,2.4319043E-2,5.460263E-2,-3.399391E-2,2.0603333E-2,6.525809E-2,6.305077E-2,-6.80326E-2],"categories":[],"categories_nodes":[],"categories_segments":[],"categories_sizes":[],"default_left":[0,0,0,0,0,0,0,0,0,0,0,0,0,0,0,0,0,0,0,0,0,0,0,0,0,0,0,0,0,0,0,0,0,0,0,0,0,0,0,0,0,0,0,0,0,0,0,0,0,0,0,0,0,0,0,0,0,0,0,0,0,0,0,0,0,0,0,0,0,0,0,0,0,0,0,0,0,0,0,0,0,0,0,0,0,0,0,0,0,0,0,0,0,0,0,0,0,0,0,0,0,0,0,0,0,0,0,0,0,0,0],"id":11,"left_children":[1,3,5,7,9,11,13,15,17,19,21,23,25,27,29,31,33,35,37,39,41,43,45,47,49,51,53,55,57,59,61,63,65,67,69,-1,-1,71,73,-1,75,-1,-1,-1,-1,-1,77,79,81,83,85,87,89,91,93,95,97,99,101,103,105,107,109,-1,-1,-1,-1,-1,-1,-1,-1,-1,-1,-1,-1,-1,-1,-1,-1,-1,-1,-1,-1,-1,-1,-1,-1,-1,-1,-1,-1,-1,-1,-1,-1,-1,-1,-1,-1,-1,-1,-1,-1,-1,-1,-1,-1,-1,-1,-1,-1],"loss_changes":[1.5398645E3,5.611872E2,9.259993E2,2.0686914E2,1.3419919E2,4.321925E2,6.333633E2,2.8855884E2,8.764136E1,2.7333286E1,4.7924545E1,1.363147E2,1.4879547E2,1.5179364E2,1.6144998E2,9.822382E1,6.7590576E1,1.0394699E1,3.8359375E1,9.179676E0,9.422514E0,1.3518976E1,1.6186127E1,2.893367E1,8.529358E1,3.483011E1,7.1974045E1,1.3042433E2,4.8759888E1,1.0206867E2,6.68913E1,5.3536407E1,4.7993664E1,1.8188507E1,2.1569752E1,0E0,0E0,3.5819214E1,7.4894915E0,0E0,3.4410896E0,0E0,0E0,0E0,0E0,0E0,5.2483826E0,2.8788757E-1,1.961282E1,3.328308E1,4.673877E1,1.1272688E0,8.052368E0,1.3162073E1,2.6054977E1,4.5149536E1,4.873124E1,2.232666E1,1.4969652E1,4.1645508E1,4.9428947E1,3.7393585E1,2.7703777E1,0E0,0E0,0E0,0E0,0E0,0E0,0E0,0E0,0E0,0E0,0E0,0E0,0E0,0E0,0E0,0E0,0E0,0E0,0E0,0E0,0E0,0E0,0E0,0E0,0E0,0E0,0E0,0E0,0E0,0E0,0E0,0E0,0E0,0E0,0E0,0E0,0E0,0E0,0E0,0E0,0E0,0E0,0E0,0E0,0E0,0E0,0E0,0E0],"parents":[2147483647,0,0,1,1,2,2,3,3,4,4,5,5,6,6,7,7,8,8,9,9,10,10,11,11,12,12,13,13,14,14,15,15,16,16,17,17,18,18,19,19,20,20,21,21,22,22,23,23,24,24,25,25,26,26,27,27,28,28,29,29,30,30,31,31,32,32,33,33,34,34,37,37,38,38,40,40,46,46,47,47,48,48,49,49,50,50,51,51,52,52,53,53,54,54,55,55,56,56,57,57,58,58,59,59,60,60,61,61,62,62],"right_children":[2,4,6,8,10,12,14,16,18,20,22,24,26,28,30,32,34,36,38,40,42,44,46,48,50,52,54,56,58,60,62,64,66,68,70,-1,-1,72,74,-1,76,-1,-1,-1,-1,-1,78,80,82,84,86,88,90,92,94,96,98,100,102,104,106,108,110,-1,-1,-1,-1,-1,-1,-1,-1,-1,-1,-1,-1,-1,-1,-1,-1,-1,-1,-1,-1,-1,-1,-1,-1,-1,-1,-1,-1,-1,-1,-1,-1,-1,-1,-1,-1,-1,-1,-1,-1,-1,-1,-1,-1,-1,-1,-1,-1],"split_conditions":[-2.4073006E-1,7.6749015E-1,1.2297301E-1,3.548773E-2,-1.5612933E-1,5.2939683E-1,-1.187218E-1,1.3333164E-1,-1.3538452E0,-9.097748E-2,-1.2690215E0,-1.1739187E0,-4.513712E-1,-2.672031E-1,-3.3319694E-1,5.47409E-1,-8.3709046E-2,5.161984E-1,1.546695E0,-8.678922E-1,-1.3406861E0,-1.8832312E0,-1.2637806E0,7.514933E-2,-1.5566733E0,-7.935957E-1,-3.4202382E-1,-3.179181E-1,1.765632E0,-4.6309948E-2,1.2852241E0,-5.771083E-1,4.3227303E-1,1.4644935E0,-2.1536815E-1,7.075744E-2,-4.5294542E-2,1.305075E0,-1.184911E0,3.5195198E-2,1.0896173E0,-4.7326144E-2,6.1549403E-2,4.7684398E-2,-6.71619E-2,-5.1537704E-2,5.158807E-1,1.817369E0,6.2734574E-1,3.8271317E-1,1.1481535E0,1.244877E0,-4.6782845E-1,-2.9330063E-1,1.0462228E0,1.5820022E-1,-4.3337548E-1,6.226665E-1,3.7758094E-1,4.7407028E-1,4.8998393E-2,-2.0069933E-1,-1.425717E0,-2.1780998E-2,5.977043E-2,-5.8437377E-2,4.608455E-2,-6.642807E-2,6.0678758E-2,-4.369498E-2,4.999737E-2,-6.6847794E-2,-8.0495635E-3,-3.8028058E-2,8.049198E-2,-7.6879434E-2,7.897083E-3,7.02597E-2,-3.910285E-3,-8.58265E-2,-2.3820445E-2,4.43151E-2,-5.5133294E-2,6.1582763E-2,-7.270155E-2,6.6366285E-2,2.0391557E-2,-6.76259E-2,-6.380943E-3,-2.302138E-2,6.8840764E-2,-4.56278E-2,6.783585E-2,-6.5447696E-2,5.8368202E-2,-6.1466422E-2,5.0169032E-2,6.3431315E-2,-2.7974641E-2,-6.8738215E-2,-2.5647966E-2,7.5312935E-2,-4.731266E-2,-7.227541E-2,2.4319043E-2,5.460263E-2,-3.399391E-2,2.0603333E-2,6.525809E-2,6.305077E-2,-6.80326E-2],"split_indices":[37,467,18,688,487,593,233,216,711,115,72,738,511,688,51,46,738,168,765,523,334,114,174,753,640,138,711,30,75,487,688,467,302,607,503,0,0,631,409,0,685,0,0,0,0,0,711,513,539,625,494,266,701,110,95,682,672,459,637,433,688,375,563,0,0,0,0,0,0,0,0,0,0,0,0,0,0,0,0,0,0,0,0,0,0,0,0,0,0,0,0,0,0,0,0,0,0,0,0,0,0,0,0,0,0,0,0,0,0,0,0],"split_type":[0,0,0,0,0,0,0,0,0,0,0,0,0,0,0,0,0,0,0,0,0,0,0,0,0,0,0,0,0,0,0,0,0,0,0,0,0,0,0,0,0,0,0,0,0,0,0,0,0,0,0,0,0,0,0,0,0,0,0,0,0,0,0,0,0,0,0,0,0,0,0,0,0,0,0,0,0,0,0,0,0,0,0,0,0,0,0,0,0,0,0,0,0,0,0,0,0,0,0,0,0,0,0,0,0,0,0,0,0,0,0],"sum_hessian":[4.153747E3,1.6127715E3,2.5409756E3,1.4132716E3,1.9949994E2,1.4898331E3,1.0511425E3,4.5250507E2,9.607665E2,3.7210773E1,1.6228917E2,1.2998989E3,1.8993419E2,5.804845E2,4.7065796E2,1.9702995E2,2.5547513E2,1.4555188E1,9.462113E2,2.9110983E1,8.099792E0,1.1151086E1,1.5113809E2,3.5204113E1,1.2646948E3,5.2563324E1,1.3737086E2,1.6088126E2,4.1960324E2,1.4579628E2,3.248617E2,1.413751E2,5.5654846E1,2.2959816E2,2.5876957E1,1.3014143E1,1.5410457E0,9.403703E2,5.8410096E0,1.5136746E0,2.7597307E1,1.9119487E0,6.1878424E0,2.7062812E0,8.444804E0,2.1528764E0,1.4898521E2,1.6303593E1,1.890052E1,2.0995401E1,1.2436995E3,5.77824E0,4.6785084E1,1.5965116E1,1.2140575E2,8.367133E1,7.720992E1,4.0928778E2,1.031549E1,7.183477E1,7.396152E1,3.0506647E2,1.9795225E1,2.3694391E1,1.1768072E2,4.170338E1,1.3951463E1,2.2748137E2,2.1168041E0,8.262787E0,1.761417E1,9.1341187E2,2.6958408E1,1.0817405E0,4.759269E0,2.6530945E1,1.0663621E0,1.4666522E2,2.319993E0,1.5167847E1,1.1357453E0,1.179859E1,7.1019306E0,5.5475545E0,1.5447846E1,1.184567E3,5.913249E1,4.6542587E0,1.1239812E0,2.0587556E0,4.4726326E1,2.364589E0,1.3600526E1,1.1773742E2,3.6683245E0,7.413291E1,9.538424E0,5.8545567E1,1.8664354E1,3.748984E2,3.4389347E1,7.598863E0,2.7166264E0,5.8630493E1,1.3204274E1,5.2434086E1,2.1527431E1,5.9346134E1,2.4572032E2,4.4869127E0,1.5308312E1],"tree_param":{"num_deleted":"0","num_feature":"783","num_nodes":"111","size_leaf_vector":"1"}},{"base_weights":[2.6026585E-3,6.023848E-1,-5.8143824E-1,-8.233099E-1,8.862569E-1,1.1091157E0,-8.6314124E-1,-1.2205834E0,8.436707E-2,1.0393894E0,-7.3171335E-1,1.2788116E0,-7.8929156E-1,8.689479E-1,-1.0559273E0,9.1433364E-1,-1.2708783E0,8.767604E-1,-1.1099894E0,1.1629493E0,-1.8887366E-1,9.233694E-1,-1.3397036E0,-9.12922E-1,1.3352377E0,8.4678864E-1,-1.2954792E0,-1.1406343E0,1.2168522E0,-1.1584417E0,2.2205931E-1,6.1155308E-2,-1.17467595E-2,-1.3378316E0,-2.8896606E-1,-1.0216715E0,1.162135E0,9.302827E-1,-1.3121709E0,-8.911506E-1,1.2124082E0,-9.916416E-1,1.189435E0,1.2061409E0,-9.512981E-1,8.285694E-1,-1.4172451E0,3.5817146E-2,-6.450295E-2,1.3669541E0,-8.388588E-1,6.0178008E-2,-2.4510967E-2,2.2310255E-2,-1.4215388E0,3.603522E-2,-1.3009061E0,-9.568156E-1,1.3261994E0,1.1887459E0,-1.1989805E0,1.3183658E0,-6.763178E-1,5.1663615E-2,-6.794328E-2,-5.1333994E-2,3.921966E-2,1.5666476E-2,-6.5175354E-2,-1.5121779E-2,7.0438474E-2,5.8235396E-2,5.0308635E-3,-7.181095E-2,4.161887E-2,5.5699732E-2,-6.363396E-2,6.407495E-2,2.1930782E-2,4.3545313E-2,-7.6522596E-2,-3.0764861E-2,6.5760165E-2,-5.216823E-2,6.732186E-2,-6.973771E-2,2.4845786E-2,-4.8574726E-3,5.698104E-2,3.5626657E-2,-7.258551E-2,6.961325E-2,-1.6913993E-2,-5.9585523E-2,7.5406316E-3,-7.282919E-2,-2.1642989E-2,-6.928437E-2,6.144782E-3,-6.1424017E-2,1.7493477E-2,7.017035E-2,7.297261E-3,6.929279E-2,-4.3223243E-2,-4.4802386E-2,-6.698965E-2,-3.9992362E-2,6.8899326E-2,1.760873E-2,-6.013248E-2],"categories":[],"categories_nodes":[],"categories_segments":[],"categories_sizes":[],"default_left":[0,0,0,0,0,0,0,0,0,0,0,0,0,0,0,0,0,0,0,0,0,0,0,0,0,0,0,0,0,0,0,0,0,0,0,0,0,0,0,0,0,0,0,0,0,0,0,0,0,0,0,0,0,0,0,0,0,0,0,0,0,0,0,0,0,0,0,0,0,0,0,0,0,0,0,0,0,0,0,0,0,0,0,0,0,0,0,0,0,0,0,0,0,0,0,0,0,0,0,0,0,0,0,0,0,0,0,0,0,0,0],"id":12,"left_children":[1,3,5,7,9,11,13,15,17,19,21,23,25,27,29,31,33,35,37,39,41,43,45,47,49,51,53,55,57,59,61,-1,-1,63,65,67,69,71,73,75,77,79,81,83,85,87,89,-1,-1,91,93,-1,-1,-1,95,-1,97,99,101,103,105,107,109,-1,-1,-1,-1,-1,-1,-1,-1,-1,-1,-1,-1,-1,-1,-1,-1,-1,-1,-1,-1,-1,-1,-1,-1,-1,-1,-1,-1,-1,-1,-1,-1,-1,-1,-1,-1,-1,-1,-1,-1,-1,-1,-1,-1,-1,-1,-1,-1],"loss_changes":[1.4223966E3,8.114837E2,9.8069904E2,1.2023912E2,4.1480164E2,9.58132E1,5.899525E2,2.6051544E1,9.784777E1,2.3196924E2,1.4722125E2,3.4674133E1,2.1606815E1,1.252905E2,2.0827356E2,2.3869576E0,1.4529144E1,3.482774E1,1.82435E1,1.4205188E2,1.5656581E2,2.2122025E1,1.9081406E1,5.461015E0,1.9359924E1,3.6697717E0,4.8736954E0,8.893581E0,3.729036E1,1.4130066E2,1.1784289E2,0E0,0E0,1.198349E1,1.3283238E1,3.6616735E0,2.009333E1,7.202661E-1,1.1294167E1,2.6817736E1,7.1900024E1,9.094272E1,1.2644646E1,1.2394573E1,4.382654E0,1.3513112E0,8.609451E0,0E0,0E0,1.1723755E1,1.7223728E0,0E0,0E0,0E0,1.6441345E-3,0E0,3.1774254E0,3.2127113E0,1.2981979E1,1.1501934E1,6.0462402E1,7.8990555E0,3.6110447E1,0E0,0E0,0E0,0E0,0E0,0E0,0E0,0E0,0E0,0E0,0E0,0E0,0E0,0E0,0E0,0E0,0E0,0E0,0E0,0E0,0E0,0E0,0E0,0E0,0E0,0E0,0E0,0E0,0E0,0E0,0E0,0E0,0E0,0E0,0E0,0E0,0E0,0E0,0E0,0E0,0E0,0E0,0E0,0E0,0E0,0E0,0E0,0E0],"parents":[2147483647,0,0,1,1,2,2,3,3,4,4,5,5,6,6,7,7,8,8,9,9,10,10,11,11,12,12,13,13,14,14,15,15,16,16,17,17,18,18,19,19,20,20,21,21,22,22,23,23,24,24,25,25,26,26,27,27,28,28,29,29,30,30,33,33,34,34,35,35,36,36,37,37,38,38,39,39,40,40,41,41,42,42,43,43,44,44,45,45,46,46,49,49,50,50,54,54,56,56,57,57,58,58,59,59,60,60,61,61,62,62],"right_children":[2,4,6,8,10,12,14,16,18,20,22,24,26,28,30,32,34,36,38,40,42,44,46,48,50,52,54,56,58,60,62,-1,-1,64,66,68,70,72,74,76,78,80,82,84,86,88,90,-1,-1,92,94,-1,-1,-1,96,-1,98,100,102,104,106,108,110,-1,-1,-1,-1,-1,-1,-1,-1,-1,-1,-1,-1,-1,-1,-1,-1,-1,-1,-1,-1,-1,-1,-1,-1,-1,-1,-1,-1,-1,-1,-1,-1,-1,-1,-1,-1,-1,-1,-1,-1,-1,-1,-1,-1,-1,-1,-1,-1],"split_conditions":[3.548773E-2,-8.5847735E-1,-9.394394E-1,2.0125303E-1,8.6223406E-1,2.6095921E-2,-9.52287E-1,-1.4497325E0,7.529209E-1,1.3187934E0,1.8307424E-1,-8.169156E-1,-1.17665224E-1,-2.5073206E-1,1.246609E0,1.0191985E0,-3.2744086E-1,-7.6282454E-1,-4.7725433E-1,-1.5709283E0,9.298728E-2,7.597013E-2,-4.9590653E-1,-7.874154E-1,1.3718498E0,7.8161836E-1,2.2619595E-1,-8.3310795E-1,-1.1697292E0,-1.7038845E0,-4.4890574E-1,6.1155308E-2,-1.17467595E-2,-1.8993014E0,-1.0916377E-1,-3.7036216E-1,-5.740474E-1,-3.3323767E-3,9.061041E-1,-3.7503338E-1,6.781791E-1,2.1826197E-1,-1.3021705E0,-2.5953943E-1,-5.414435E-1,-4.617837E-1,-1.1407895E0,3.5817146E-2,-6.450295E-2,1.0829602E0,-7.907327E-1,6.0178008E-2,-2.4510967E-2,2.2310255E-2,1.7385625E0,3.603522E-2,1.045717E0,5.303957E-1,6.125839E-1,4.9048352E-1,-8.4019035E-2,-8.65492E-1,-1.0798535E-1,5.1663615E-2,-6.794328E-2,-5.1333994E-2,3.921966E-2,1.5666476E-2,-6.5175354E-2,-1.5121779E-2,7.0438474E-2,5.8235396E-2,5.0308635E-3,-7.181095E-2,4.161887E-2,5.5699732E-2,-6.363396E-2,6.407495E-2,2.1930782E-2,4.3545313E-2,-7.6522596E-2,-3.0764861E-2,6.5760165E-2,-5.216823E-2,6.732186E-2,-6.973771E-2,2.4845786E-2,-4.8574726E-3,5.698104E-2,3.5626657E-2,-7.258551E-2,6.961325E-2,-1.6913993E-2,-5.9585523E-2,7.5406316E-3,-7.282919E-2,-2.1642989E-2,-6.928437E-2,6.144782E-3,-6.1424017E-2,1.7493477E-2,7.017035E-2,7.297261E-3,6.929279E-2,-4.3223243E-2,-4.4802386E-2,-6.698965E-2,-3.9992362E-2,6.8899326E-2,1.760873E-2,-6.013248E-2],"split_indices":[688,738,510,703,672,390,728,728,566,255,457,661,532,517,342,563,610,134,316,503,487,185,700,166,26,672,688,246,347,46,564,0,0,435,656,212,683,200,732,242,56,549,648,454,178,387,516,0,0,659,52,0,0,0,117,0,244,206,107,50,59,661,381,0,0,0,0,0,0,0,0,0,0,0,0,0,0,0,0,0,0,0,0,0,0,0,0,0,0,0,0,0,0,0,0,0,0,0,0,0,0,0,0,0,0,0,0,0,0,0,0],"split_type":[0,0,0,0,0,0,0,0,0,0,0,0,0,0,0,0,0,0,0,0,0,0,0,0,0,0,0,0,0,0,0,0,0,0,0,0,0,0,0,0,0,0,0,0,0,0,0,0,0,0,0,0,0,0,0,0,0,0,0,0,0,0,0,0,0,0,0,0,0,0,0,0,0,0,0,0,0,0,0,0,0,0,0,0,0,0,0,0,0,0,0,0,0,0,0,0,0,0,0,0,0,0,0,0,0,0,0,0,0,0,0],"sum_hessian":[4.0585413E3,2.002272E3,2.0562693E3,3.3215997E2,1.670112E3,2.9328314E2,1.7629861E3,2.3079883E2,1.0136112E2,1.526038E3,1.4407399E2,2.6951773E2,2.3765417E1,1.7622081E2,1.5867653E3,4.9166756E0,2.2588216E2,6.109421E1,4.0266914E1,1.3866027E3,1.394353E2,3.8567112E1,1.05506874E2,6.383592E0,2.6313416E2,5.4564414E0,1.8308975E1,2.5669388E1,1.5055142E2,1.4690206E3,1.1774469E2,3.824819E0,1.0918562E0,2.1112387E2,1.4758294E1,7.6464825E0,5.344773E1,3.3058066E0,3.6961105E1,3.2201706E1,1.354401E3,8.829197E1,5.114333E1,3.3822063E1,4.7450485E0,3.3084376E0,1.0219843E2,1.0308412E0,5.352751E0,2.5971658E2,3.417571E0,4.385904E0,1.0705378E0,1.0643201E0,1.7244656E1,1.7578299E0,2.3911558E1,6.8396006E0,1.4371182E2,2.4460104E1,1.4445604E3,5.2819977E1,6.4924706E1,1.433255E0,2.0969061E2,8.772496E0,5.9857984E0,1.313402E0,6.3330803E0,7.670765E0,4.5776962E1,2.262656E0,1.0431507E0,3.5252285E1,1.7088226E0,4.8407984E0,2.7360907E1,1.242779E3,1.11621956E2,1.967242E1,6.861955E1,3.078311E0,4.8065018E1,1.6076826E0,3.2214382E1,3.660948E0,1.0841007E0,1.0050337E0,2.3034039E0,1.3141788E0,1.00884254E2,2.5609882E2,3.6177516E0,2.368848E0,1.0487231E0,1.6197262E1,1.0473946E0,2.2593008E1,1.3185493E0,5.7119207E0,1.1276801E0,1.3471051E2,9.0013075E0,2.2614157E1,1.8459477E0,4.607353E2,9.838252E2,1.1061159E0,5.1713863E1,2.2090017E1,4.283469E1],"tree_param":{"num_deleted":"0","num_feature":"783","num_nodes":"111","size_leaf_vector":"1"}},{"base_weights":[-2.9423686E-3,-6.732926E-1,5.1124156E-1,-9.186497E-1,5.186377E-1,1.0089498E0,-1.5519045E-1,9.373742E-2,-1.0573573E0,1.1477915E0,-7.3236185E-1,-5.8310175E-1,1.1726321E0,7.8256005E-1,-6.5989065E-1,-1.1233802E0,6.8178654E-1,-1.191969E0,-3.9919072E-1,1.2365237E0,-9.87164E-1,8.5008264E-1,-1.1365284E0,1.0419693E0,-1.1624943E0,1.206177E0,-5.416345E-1,-5.10237E-1,1.1025065E0,6.048004E-1,-1.1051885E0,9.697614E-1,-1.4065688E0,-1.7136145E-1,1.240643E0,7.829836E-1,-1.2281933E0,1.1620815E0,-8.3565617E-1,1.2833916E0,-9.7488606E-1,-7.078784E-2,2.9597817E-2,6.835434E-2,-5.6941427E-2,-1.338248E0,1.0139743E0,-7.994291E-1,1.275436E0,-1.3346848E0,6.310824E-1,1.2580912E0,1.4927354E-1,-1.3831885E0,6.098568E-2,-1.2347898E0,7.830425E-1,1.273514E0,1.7088738E-1,1.101789E0,-7.768204E-1,-1.3251884E0,-2.4102159E-1,6.0200967E-2,-1.1553065E-2,-1.0665708E-2,-7.138228E-2,-4.186217E-2,3.908456E-2,6.8330586E-2,-3.599937E-2,-5.863523E-2,7.1379356E-2,-6.2721066E-2,1.0344817E-2,-6.048422E-2,6.725126E-2,-5.300994E-2,2.3822447E-2,-1.9683793E-2,6.674452E-2,-6.083759E-3,-5.9668925E-2,-6.9408484E-2,2.7461676E-2,6.2322535E-2,-1.0219401E-2,2.3483925E-2,-6.860074E-2,-3.394322E-2,6.897527E-2,4.392313E-2,-6.931545E-2,-4.9549982E-2,6.043881E-2,6.499373E-2,1.5249384E-2,3.4987673E-2,-5.7923473E-2,1.8403934E-2,-7.6528884E-2,-6.972673E-2,3.169811E-2,5.7976168E-2,-4.6809565E-2,-4.1760325E-2,6.558963E-2,-7.0008434E-2,4.973126E-2,6.4066365E-2,-1.5204203E-2,2.1040836E-2,-6.0109E-2,1.0271842E-2,-6.881948E-2,2.5405202E-2,-4.1977774E-2],"categories":[],"categories_nodes":[],"categories_segments":[],"categories_sizes":[],"default_left":[0,0,0,0,0,0,0,0,0,0,0,0,0,0,0,0,0,0,0,0,0,0,0,0,0,0,0,0,0,0,0,0,0,0,0,0,0,0,0,0,0,0,0,0,0,0,0,0,0,0,0,0,0,0,0,0,0,0,0,0,0,0,0,0,0,0,0,0,0,0,0,0,0,0,0,0,0,0,0,0,0,0,0,0,0,0,0,0,0,0,0,0,0,0,0,0,0,0,0,0,0,0,0,0,0,0,0,0,0,0,0,0,0,0,0,0,0],"id":13,"left_children":[1,3,5,7,9,11,13,15,17,19,21,23,25,27,29,31,33,35,37,39,41,43,45,47,49,51,53,55,57,59,61,63,65,67,69,71,73,75,77,79,81,-1,-1,-1,-1,83,85,87,89,91,93,95,97,99,-1,101,103,105,107,109,111,113,115,-1,-1,-1,-1,-1,-1,-1,-1,-1,-1,-1,-1,-1,-1,-1,-1,-1,-1,-1,-1,-1,-1,-1,-1,-1,-1,-1,-1,-1,-1,-1,-1,-1,-1,-1,-1,-1,-1,-1,-1,-1,-1,-1,-1,-1,-1,-1,-1,-1,-1,-1,-1,-1,-1],"loss_changes":[1.377528E3,5.0781744E2,7.5033673E2,2.0217468E2,2.3443141E2,3.3811792E2,4.585679E2,1.25532104E2,1.11661255E2,3.870343E1,6.487421E1,1.1550305E2,6.819275E1,1.408181E2,3.5530963E2,3.5248474E1,5.654835E1,7.61001E1,1.4844583E2,2.0986084E1,6.557953E0,2.3048874E1,3.6070503E1,1.4961853E1,2.862384E1,6.3034912E1,3.6122593E1,6.464322E1,4.3137054E1,1.1390184E2,8.829315E1,2.3610282E0,9.720688E-1,3.0890282E1,1.864608E1,2.6291706E1,3.909424E1,2.2324417E1,5.050717E1,1.6666626E1,6.974225E-1,0E0,0E0,0E0,0E0,7.6966248E0,2.359633E0,3.7428536E0,6.8685684E0,1.063179E1,9.217846E0,4.333728E1,4.0464146E1,4.7420692E0,0E0,1.4001648E1,1.7275116E1,1.9642609E1,5.7507126E1,3.1055557E1,2.2992317E1,2.938092E1,4.3382347E1,0E0,0E0,0E0,0E0,0E0,0E0,0E0,0E0,0E0,0E0,0E0,0E0,0E0,0E0,0E0,0E0,0E0,0E0,0E0,0E0,0E0,0E0,0E0,0E0,0E0,0E0,0E0,0E0,0E0,0E0,0E0,0E0,0E0,0E0,0E0,0E0,0E0,0E0,0E0,0E0,0E0,0E0,0E0,0E0,0E0,0E0,0E0,0E0,0E0,0E0,0E0,0E0,0E0,0E0],"parents":[2147483647,0,0,1,1,2,2,3,3,4,4,5,5,6,6,7,7,8,8,9,9,10,10,11,11,12,12,13,13,14,14,15,15,16,16,17,17,18,18,19,19,20,20,21,21,22,22,23,23,24,24,25,25,26,26,27,27,28,28,29,29,30,30,31,31,32,32,33,33,34,34,35,35,36,36,37,37,38,38,39,39,40,40,45,45,46,46,47,47,48,48,49,49,50,50,51,51,52,52,53,53,55,55,56,56,57,57,58,58,59,59,60,60,61,61,62,62],"right_children":[2,4,6,8,10,12,14,16,18,20,22,24,26,28,30,32,34,36,38,40,42,44,46,48,50,52,54,56,58,60,62,64,66,68,70,72,74,76,78,80,82,-1,-1,-1,-1,84,86,88,90,92,94,96,98,100,-1,102,104,106,108,110,112,114,116,-1,-1,-1,-1,-1,-1,-1,-1,-1,-1,-1,-1,-1,-1,-1,-1,-1,-1,-1,-1,-1,-1,-1,-1,-1,-1,-1,-1,-1,-1,-1,-1,-1,-1,-1,-1,-1,-1,-1,-1,-1,-1,-1,-1,-1,-1,-1,-1,-1,-1,-1,-1,-1,-1],"split_conditions":[-1.1513688E-1,6.071081E-1,6.5979026E-2,-5.773313E-1,5.070363E-2,-8.888255E-1,-4.9233752E-1,-1.0310957E0,5.072169E-1,1.2500327E0,-5.85547E-1,-1.9071323E-1,1.7789189E0,-5.699435E-1,-5.8075535E-1,-7.040134E-1,-6.8689294E-2,-1.9346788E0,-6.6700715E-1,1.2617514E0,7.797278E-1,1.0865722E-2,1.2169386E0,-3.524855E-1,-1.1295673E-1,1.062917E0,8.1957716E-1,-4.237555E-1,2.1426186E-1,5.514861E-1,2.97491E-1,4.5293756E-2,-1.1696349E0,4.530329E-1,9.8932236E-1,-4.7557446E-1,1.2796462E0,-1.3707492E0,-1.8706542E-1,-1.3822103E0,-1.0970833E0,-7.078784E-2,2.9597817E-2,6.835434E-2,-5.6941427E-2,1.0336422E0,9.1050535E-1,-1.236595E0,-1.1025175E0,-1.4110905E0,-3.002644E-1,1.0913928E0,1.5002556E-1,-7.4572706E-1,6.098568E-2,6.21421E-1,7.397009E-1,-1.6898534E0,-6.902814E-1,6.059637E-1,-2.1450916E-1,-1.056603E0,2.7410686E-1,6.0200967E-2,-1.1553065E-2,-1.0665708E-2,-7.138228E-2,-4.186217E-2,3.908456E-2,6.8330586E-2,-3.599937E-2,-5.863523E-2,7.1379356E-2,-6.2721066E-2,1.0344817E-2,-6.048422E-2,6.725126E-2,-5.300994E-2,2.3822447E-2,-1.9683793E-2,6.674452E-2,-6.083759E-3,-5.9668925E-2,-6.9408484E-2,2.7461676E-2,6.2322535E-2,-1.0219401E-2,2.3483925E-2,-6.860074E-2,-3.394322E-2,6.897527E-2,4.392313E-2,-6.931545E-2,-4.9549982E-2,6.043881E-2,6.499373E-2,1.5249384E-2,3.4987673E-2,-5.7923473E-2,1.8403934E-2,-7.6528884E-2,-6.972673E-2,3.169811E-2,5.7976168E-2,-4.6809565E-2,-4.1760325E-2,6.558963E-2,-7.0008434E-2,4.973126E-2,6.4066365E-2,-1.5204203E-2,2.1040836E-2,-6.0109E-2,1.0271842E-2,-6.881948E-2,2.5405202E-2,-4.1977774E-2],"split_indices":[37,467,18,688,566,221,688,703,221,149,711,336,480,30,304,245,228,767,711,259,505,227,144,45,758,482,104,682,78,719,459,559,393,194,59,597,765,142,109,72,294,0,0,0,0,22,244,336,729,402,138,704,511,371,0,182,189,527,380,643,520,413,304,0,0,0,0,0,0,0,0,0,0,0,0,0,0,0,0,0,0,0,0,0,0,0,0,0,0,0,0,0,0,0,0,0,0,0,0,0,0,0,0,0,0,0,0,0,0,0,0,0,0,0,0,0,0],"split_type":[0,0,0,0,0,0,0,0,0,0,0,0,0,0,0,0,0,0,0,0,0,0,0,0,0,0,0,0,0,0,0,0,0,0,0,0,0,0,0,0,0,0,0,0,0,0,0,0,0,0,0,0,0,0,0,0,0,0,0,0,0,0,0,0,0,0,0,0,0,0,0,0,0,0,0,0,0,0,0,0,0,0,0,0,0,0,0,0,0,0,0,0,0,0,0,0,0,0,0,0,0,0,0,0,0,0,0,0,0,0,0,0,0,0,0,0,0],"sum_hessian":[3.9945044E3,1.7338047E3,2.2606997E3,1.4380198E3,2.957849E2,1.2938821E3,9.668176E2,1.7332143E2,1.2646984E3,1.968616E2,9.892331E1,1.203863E2,1.1734958E3,3.3808795E2,6.2872974E2,5.616444E1,1.1715698E2,1.0492825E3,2.1541588E2,1.8941022E2,7.4513755E0,1.9901014E1,7.902229E1,3.1430933E1,8.895537E1,1.1512642E3,2.2231607E1,6.695408E1,2.7113385E2,1.6363408E2,4.650956E2,6.4042273E0,4.9760216E1,4.664393E1,7.0513054E1,1.852778E1,1.0307546E3,4.6700813E1,1.6871506E2,1.8589017E2,3.5200472E0,5.942075E0,1.5093005E0,1.604331E1,3.857705E0,7.259089E1,6.431406E0,3.2638822E0,2.816705E1,8.13968E1,7.5585685E0,1.0971812E3,5.4083E1,1.5189108E1,7.0424995E0,4.294154E1,2.4012539E1,2.2877336E2,4.2360504E1,1.2049344E2,4.314065E1,3.7029288E2,9.480276E1,5.356594E0,1.047633E0,1.0566852E0,4.870353E1,2.7530407E1,1.9113522E1,6.654084E1,3.9722114E0,4.3898807E0,1.4137899E1,1.0123781E3,1.8376545E1,2.9423614E0,4.375845E1,1.4422551E2,2.4489546E1,5.3402305E0,1.8054994E2,1.0350541E0,2.4849932E0,7.097814E1,1.6127479E0,5.3815045E0,1.0499014E0,1.0706229E0,2.193259E0,1.1448529E0,2.7022198E1,1.4903002E0,7.9906494E1,1.7971072E0,5.7614613E0,1.0507532E3,4.642804E1,3.838864E1,1.5694359E1,1.0628676E0,1.412624E1,3.979366E1,3.1478786E0,1.9965925E1,4.0466156E0,3.7075834E0,2.2506578E2,1.433005E1,2.8030453E1,1.06926834E2,1.3566601E1,1.1309224E1,3.1831427E1,1.1888283E1,3.5840457E2,4.2171703E1,5.2631054E1],"tree_param":{"num_deleted":"0","num_feature":"783","num_nodes":"117","size_leaf_vector":"1"}},{"base_weights":[9.2548365E-3,-6.3034594E-1,5.2883995E-1,-1.3267894E-1,-1.1652825E0,-4.0495333E-1,8.778287E-1,-6.8827856E-1,9.031863E-1,-1.2253761E0,6.0423154E-1,4.4235593E-1,-1.2177544E0,1.0456468E0,-2.8431594E-1,9.432446E-1,-9.604547E-1,1.270208E0,-5.39257E-1,-1.2599227E0,8.7320983E-1,9.944572E-1,-8.2770705E-1,-6.091555E-1,1.0507989E0,-1.3069077E0,9.746493E-1,-8.4990436E-1,1.1093633E0,4.5835721E-1,-9.8866326E-1,-1.0087267E0,1.2251215E0,7.7531755E-1,-1.0848076E0,1.304518E0,-5.744178E-2,1.1725198E0,-1.0069561E0,-1.2909822E0,4.5040932E-1,6.549924E-2,-4.2770304E-2,1.1844537E0,-4.7796853E-2,-6.2274434E-2,3.6308475E-2,1.1012883E0,-1.0498086E0,1.2175362E0,-1.2052642E-1,5.0763983E-2,-1.3218888E0,-3.4869034E-2,6.3805476E-2,6.131911E-2,-1.277261E0,1.1625012E0,3.2666393E-2,-9.1067934E-1,8.934411E-1,3.9597335E-1,-1.2639233E0,-6.833743E-2,3.1704724E-2,-4.6675827E-2,6.544704E-2,6.1722703E-2,-6.2020995E-2,6.6807205E-3,-5.8511924E-2,-4.028752E-2,6.6674314E-2,-2.7021736E-2,7.370709E-2,3.043677E-2,-6.458365E-2,-6.637927E-2,-1.1782634E-2,6.2143285E-2,-6.533163E-2,-3.914824E-2,6.658175E-2,-4.3474812E-2,6.7070805E-2,1.4987937E-2,-6.564238E-2,6.351179E-2,-6.855452E-2,-4.7620203E-2,3.6578532E-2,1.7241307E-2,-6.683201E-2,-7.10541E-2,4.5267664E-2,5.9733983E-2,-2.7823625E-2,-4.142612E-2,4.522093E-2,4.1813955E-2,-6.2116425E-2,5.7755142E-2,-5.7496008E-2,-3.948557E-2,5.3905614E-2,3.5311203E-2,-6.757238E-2],"categories":[],"categories_nodes":[],